-8.11985e-03
-2.58830e-01
5.09187e-01
-4.33025e-01
4.32248e-01
-7.22692e-02
5.31618e-01
-1.04450e-01
-4.21562e-04
1.37349e-02
-1.58956e-02
6.67945e-03
-6.58504e-03
5.71255e-03
-1.81430e-03
2.48987e-04
1.01212e-03
-4.97062e-04
7.41921e-04
-1.12187e-04
4.42235e-04
-6.92497e-04
1.75780e-04
-6.00667e-04
9.77038e-05
-7.71002e-05
-1.65922e-04
-4.03793e-04
3.59522e-04
-3.07883e-04
-1.20156e-04
-9.35062e-05
3.20170e-04
2.86621e-04
8.57156e-06
1.38801e-04
1.40984e-05
-2.11867e-04
2.23742e-04
-1.31516e-05
6.43719e-05
-8.20852e-05
2.51800e-04
-4.15639e-05
2.10039e-04
-8.10579e-05
1.68579e-05
-6.99594e-05
8.12490e-05
-9.48265e-05
8.71214e-05
-4.91999e-05
7.51007e-05
8.32535e-05
-1.04782e-05
-6.85254e-05
-5.95745e-05
6.02439e-05
-2.93118e-05
-6.97437e-05
8.89138e-05
6.59869e-05
-1.34483e-05
-2.94465e-05
-1.88193e-05
-2.49580e-05
1.78958e-05
5.33716e-05
2.04863e-07
1.29007e-06
9.48737e-05
8.11605e-05
-4.84294e-05
-9.42513e-05
-4.48468e-05
-1.93886e-05
-6.56830e-05
-5.52506e-05
-9.64800e-05
2.13823e-05
6.01443e-05
9.02800e-05
-6.38188e-05
1.86701e-05
-2.22741e-05
2.97516e-05
-2.44250e-05
2.31692e-05
-1.36251e-05
1.11221e-05
-3.13076e-05
6.29932e-06
-4.17428e-05
1.31508e-05
-8.82135e-07
3.93169e-05
-5.82518e-05
5.38661e-05
4.87603e-05
-9.04119e-05
4.34291e-06
4.70365e-05
-4.76052e-06
-3.39880e-05
4.43264e-05
-2.22016e-05
-5.11142e-07
-1.00316e-05
8.29810e-06
8.00611e-06
3.31378e-05
-6.60183e-05
6.49527e-05
3.48571e-05
-3.13185e-06
-2.61333e-05
1.99598e-05
9.64697e-06
3.49149e-05
-5.44559e-07
-6.80113e-07
-2.60172e-06
-1.30916e-05
4.82259e-06
2.93575e-06
6.92619e-06
1.26282e-06
-6.83773e-06
-2.84396e-06
-5.83830e-06
-3.88978e-06
1.11290e-05
4.44439e-06
2.71061e-06
7.08424e-06
3.20200e-05
-1.17172e-05
-1.01823e-05
-5.60303e-06
1.02184e-05
2.17024e-05
2.72925e-05
9.67104e-06
1.25714e-05
-3.99589e-05
-8.92380e-06
-1.81046e-05
-1.83877e-05
2.19509e-05
4.00079e-06
3.80406e-05
2.42402e-05
-1.30412e-05
-1.17302e-05
-3.47371e-06
-3.42315e-05
-1.58210e-05
-9.90561e-06
4.08543e-06
6.83266e-06
1.13659e-05
2.47030e-05
5.86238e-07
4.09571e-06
1.72267e-06
-2.82499e-06
-3.21301e-06
-1.22296e-05
-1.20748e-05
-4.12640e-06
-1.83548e-05
-6.91192e-06
-1.57360e-05
7.38759e-06
5.41557e-06
2.31468e-06
3.65752e-06
1.91324e-05
1.16767e-05
8.80739e-06
6.32389e-06
6.38939e-06
-4.49719e-06
6.45650e-06
-2.44634e-06
9.71477e-07
-1.58128e-05
1.52738e-06
-2.05501e-05
4.00411e-06
-1.56820e-06
1.43407e-05
-2.89647e-07
1.31922e-05
-7.34721e-06
6.72071e-06
-2.54464e-06
8.89472e-07
-7.18047e-06
2.42820e-06
-1.38048e-05
3.41494e-06
-1.91678e-06
-2.14121e-05
5.79065e-06
9.02056e-06
-1.21900e-05
1.06410e-05
-1.10995e-05
3.11621e-06
-1.64699e-05
-3.34627e-06
7.37656e-06
3.99990e-06
-3.18898e-06
2.04718e-09
1.35505e-06
7.55636e-06
-3.59598e-06
-6.40321e-06
1.35821e-05
-2.60263e-06
-2.42312e-06
1.06822e-05
2.94518e-07
-2.25419e-06
-4.32698e-06
4.82877e-06
-4.96164e-06
2.28211e-06
8.54174e-06
-7.32091e-06
-4.11132e-08
-2.39588e-06
-1.82390e-06
1.26479e-05
-6.34708e-06
-7.88941e-07
4.10779e-06
8.15043e-07
4.50024e-07
-5.39055e-06
-1.66974e-06
-5.47113e-07
-2.73938e-06
2.35116e-06
3.06217e-06
2.15634e-06
-1.00272e-05
-7.96482e-06
5.40428e-06
7.52007e-06
5.07623e-06
-1.17039e-05
-1.24613e-05
9.34462e-07
4.59479e-06
4.74552e-07
4.01242e-06
1.25121e-05
-3.34402e-06
-2.90552e-07
-6.35720e-06
5.60798e-06
4.82141e-06
2.55297e-07
2.08087e-06
-1.07898e-05
-3.86913e-06
-1.46607e-05
1.13944e-05
4.05306e-06
6.92774e-06
7.60053e-06
1.62856e-05
-1.19930e-05
-3.61892e-06
-3.92807e-06
-1.39397e-05
4.59876e-06
7.20774e-06
1.66268e-06
7.07543e-06
-1.35193e-05
-8.03638e-07
7.95155e-06
2.52719e-06
6.06978e-07
1.58091e-06
2.45805e-07
6.60284e-06
-5.85336e-06
-3.32999e-06
-4.61742e-06
-2.17313e-08
-1.46504e-05
4.02237e-07
5.27074e-06
3.62061e-06
7.98217e-06
-1.33102e-05
-8.20804e-06
-2.67427e-06
2.42715e-06
4.82815e-06
7.93932e-07
2.68569e-06
8.73235e-07
4.33529e-06
4.27938e-06
-8.82154e-07
-2.22705e-06
-5.89677e-07
-4.44894e-06
-5.69299e-08
-5.96096e-07
-3.83659e-06
1.85695e-06
5.31785e-06
5.89304e-06
2.51313e-07
-1.98469e-07
-3.65304e-06
-2.83169e-06
-1.47026e-06
-5.09332e-06
-4.61550e-06
-2.67294e-06
5.18656e-07
6.13863e-06
1.30210e-06
4.33747e-06
2.87650e-06
5.88109e-06
-1.52246e-06
-1.88638e-06
-3.47427e-07
-1.78712e-06
-5.92700e-07
-4.25813e-06
-5.50823e-07
2.23506e-06
1.56041e-06
1.65235e-06
2.73329e-06
9.21675e-07
1.57820e-06
6.14830e-06
-3.60417e-06
-2.38180e-06
-8.94740e-07
-1.62789e-06
-1.57454e-06
-1.51972e-06
-1.02917e-06
-9.44657e-07
-6.66364e-07
-3.70336e-06
1.01619e-06
2.46727e-06
1.15027e-06
1.89814e-06
1.63358e-07
5.91027e-07
2.63019e-06
3.66342e-06
-2.91841e-08
-3.55141e-06
-1.18332e-06
-1.33583e-06
-1.62494e-06
-1.32436e-06
-2.66763e-06
-5.61667e-08
-8.56207e-07
2.31740e-06
1.76967e-06
2.18193e-06
2.20462e-06
5.82028e-07
1.42566e-06
3.69118e-07
1.42060e-06
4.63458e-07
3.21348e-07
4.07548e-06
5.55062e-07
6.59446e-07
4.67030e-06
3.69043e-06
-1.12538e-06
-5.04621e-06
-2.81098e-06
-1.27354e-06
-1.71772e-06
-7.45466e-07
-1.15662e-06
-2.58303e-06
-2.88974e-07
-6.32165e-06
2.89588e-07
1.07858e-06
8.10936e-07
1.42671e-06
5.34257e-07
1.94832e-06
7.42601e-07
1.32275e-06
3.66592e-07
1.62209e-06
1.88929e-06
1.48222e-06
7.82121e-07
5.93611e-07
6.98972e-08
1.69889e-06
2.90014e-06
3.06291e-06
1.28758e-06
1.69460e-06
1.56580e-06
-9.73842e-07
-3.31877e-06
-1.43788e-06
-5.28591e-07
-1.26493e-06
-5.73982e-10
-6.78482e-07
-1.51144e-08
-2.91970e-06
-1.66734e-06
-7.16191e-07
-6.66033e-07
-1.11742e-06
-1.52384e-06
-1.11833e-06
-1.27622e-06
-1.28010e-06
-1.86784e-06
-3.94147e-07
-2.05344e-07
-1.31154e-06
-1.48671e-06
-8.67173e-08
1.58695e-06
4.74252e-07
1.34022e-06
3.17886e-07
1.00994e-06
1.11073e-06
8.80811e-07
3.79438e-07
3.57645e-07
1.43939e-07
8.45633e-07
3.63555e-07
2.77041e-06
9.80876e-07
-8.00523e-07
2.42853e-07
-4.56255e-07
1.63088e-06
-3.01867e-07
2.50490e-07
-7.25246e-07
2.09182e-07
-8.22290e-07
5.18689e-07
-5.67202e-07
3.11763e-07
-1.60734e-06
2.61443e-07
-1.03139e-06
6.41568e-07
-9.54741e-08
7.83929e-07
8.77732e-07
-9.59817e-07
5.26041e-07
2.67054e-07
-1.01651e-06
-6.03212e-07
1.39822e-06
-2.17031e-06
2.25597e-06
1.41387e-06
-7.43433e-07
-8.77478e-09
1.30805e-06
-8.73997e-07
-1.63177e-07
6.16641e-07
1.54829e-07
1.41356e-06
-6.83474e-07
1.00999e-06
4.39835e-07
5.48568e-08
-6.61660e-07
-5.04108e-07
4.29243e-07
8.62740e-07
-9.75999e-07
-2.35757e-07
1.96850e-06
-1.86061e-06
-1.97979e-08
-1.42991e-06
2.53642e-07
9.99982e-07
7.21409e-07
-7.25328e-07
-8.65470e-07
-3.58731e-08
-1.38692e-07
9.74892e-08
2.23972e-07
6.90146e-07
-1.63958e-06
-4.46773e-07
-1.23854e-06
2.64030e-07
7.32358e-07
3.55808e-07
1.40650e-07
5.43499e-08
2.04781e-07
-7.75853e-07
-4.74025e-09
-8.48033e-07
3.07978e-07
1.27355e-06
6.45540e-08
3.21677e-07
6.99128e-07
-9.94500e-07
-1.55194e-07
-2.04305e-06
-2.23407e-06
2.34210e-06
2.40641e-06
1.15145e-06
7.67826e-07
-3.25575e-07
-2.95145e-06
-9.14869e-07
-6.43844e-07
-4.13412e-07
-8.12710e-07
-1.15730e-06
4.07228e-07
6.01114e-07
5.21483e-07
1.36977e-07
1.09810e-07
3.99794e-07
3.77579e-07
1.80980e-07
1.45496e-06
-3.82771e-07
-2.29141e-07
-5.16889e-07
-8.93183e-07
-5.21130e-08
-2.43483e-07
-1.30587e-07
-8.12393e-08
-2.63929e-07
-3.96336e-07
4.14806e-07
9.01388e-07
1.35563e-06
6.40004e-07
5.74211e-07
5.11520e-07
5.52436e-07
5.84292e-07
-4.28140e-07
-1.75359e-07
-2.84961e-07
-1.20177e-06
-7.19939e-07
-3.53329e-07
-6.92152e-07
-5.53890e-07
-9.39878e-07
-5.31553e-07
-1.79221e-07
1.95736e-07
4.39665e-07
5.45585e-08
6.45665e-07
3.37391e-07
5.50526e-07
4.14924e-07
4.78415e-07
8.69667e-08
2.78849e-07
1.15637e-07
5.43939e-07
2.17130e-07
2.74877e-07
1.19770e-08
1.11387e-07
3.02457e-07
-2.22939e-07
-4.41676e-07
-2.01946e-07
-1.06574e-07
-3.79163e-07
-3.83292e-07
-3.21596e-07
-1.23471e-07
-5.16919e-07
-3.91503e-07
-5.84757e-07
-2.18741e-07
-1.71118e-07
-8.04781e-08
-8.78099e-08
-7.18251e-08
-1.56412e-07
-9.44570e-08
-6.71272e-08
-2.92051e-07
-6.86892e-08
-5.22729e-08
-3.07755e-07
1.93039e-07
6.32905e-07
9.13834e-09
5.15729e-07
2.88307e-07
2.91130e-07
1.70023e-07
6.03002e-07
1.22891e-07
5.73805e-08
4.51870e-08
2.35100e-07
4.17594e-07
3.35982e-07
1.48141e-07
2.05754e-07
4.75948e-07
1.25187e-07
1.95461e-07
1.65164e-07
6.28944e-09
3.55169e-07
2.03597e-07
1.05621e-07
1.98880e-08
1.62086e-07
7.55653e-08
2.08699e-07
-5.74985e-07
-1.46763e-07
-9.18656e-08
-1.54183e-07
-1.90664e-07
-2.80282e-07
-1.22735e-07
-1.18035e-07
-4.41196e-07
-3.93712e-07
-8.85901e-08
-2.71514e-07
-1.08666e-07
-2.99844e-07
-1.53420e-07
-3.17380e-08
-3.28790e-08
-7.68751e-08
-1.52138e-07
-4.73695e-07
-4.09129e-07
-3.33248e-07
-6.37917e-08
-1.54228e-08
-1.20991e-07
-9.41927e-09
-4.24951e-08
-9.68526e-08
-9.27833e-08
-1.33417e-07
-3.07691e-07
-5.09670e-07
-7.03717e-07
-5.79664e-08
-2.13056e-08
-6.13110e-08
-4.36425e-08
-2.52955e-07
-1.48726e-07
-1.42520e-07
-5.71366e-07
1.63736e-07
4.79458e-07
1.44993e-08
4.80835e-07
8.20711e-08
1.49560e-07
2.55869e-07
1.56893e-07
1.86468e-07
3.77469e-07
4.96911e-07
1.68529e-07
7.98182e-08
2.50141e-07
1.44335e-07
1.09983e-08
7.76219e-08
4.78662e-07
2.15886e-07
3.78615e-07
1.47005e-07
1.26728e-07
2.30906e-07
5.57300e-08
7.42361e-08
2.74918e-07
1.86266e-07
6.60698e-08
2.21048e-08
1.06084e-07
3.54776e-07
2.04200e-08
4.00121e-08
1.39933e-07
6.15224e-08
1.18473e-07
7.21145e-08
1.14680e-07
2.59152e-08
2.59090e-07
1.06568e-07
2.76236e-07
3.53302e-08
9.64643e-08
1.53581e-07
1.65946e-07
3.26266e-07
1.87957e-07
1.71294e-07
1.61588e-07
5.61831e-08
3.10905e-07
3.66995e-07
2.94612e-08
2.74040e-07
1.18879e-07
1.06172e-07
1.83964e-07
1.08638e-07
2.26097e-07
1.32438e-07
1.09908e-07
6.82396e-08
2.52824e-08
1.11717e-08
2.59367e-07
3.03048e-07
3.09735e-07
2.76339e-08
-7.11462e-08
-9.94425e-08
-8.82689e-09
-2.77913e-07
-1.71903e-07
-2.26833e-08
-1.31921e-07
-1.03257e-07
-1.39046e-08
-2.85192e-07
-1.28465e-07
-8.30721e-08
-2.99617e-07
-2.00028e-08
-1.14978e-07
-2.63746e-07
-1.40354e-07
-1.74101e-07
-1.27167e-07
-1.75478e-07
-5.14871e-08
-2.15135e-07
-1.56430e-07
-8.02234e-08
-4.74517e-08
-1.81896e-07
-7.88769e-08
-6.67227e-08
-1.50016e-07
-8.71921e-08
-5.85686e-08
-1.71510e-07
-1.28902e-08
-3.10126e-07
-1.05143e-07
-1.17905e-07
-2.45902e-07
-2.15097e-07
-1.26641e-08
-8.49598e-09
-4.29499e-08
-8.76902e-08
-1.32947e-07
-2.22635e-07
-4.85130e-08
-4.16211e-08
-6.97171e-08
-5.89008e-08
-7.04565e-09
-3.68878e-08
-2.50762e-07
-1.42376e-07
-1.22937e-07
-9.91260e-09
-6.91884e-08
-2.28996e-08
-9.63855e-10
-3.30693e-07
-1.88660e-07
-8.02197e-08
-6.85998e-08
-8.01814e-08
-1.52112e-07
-7.92763e-08
-1.67727e-07
-3.99470e-07
-5.73351e-08
-1.91543e-07
-1.88868e-07
-6.90622e-08
-1.14350e-07
-1.11948e-09
-6.56384e-08
-3.79899e-08
-3.36498e-08
-1.01053e-07
-1.27586e-07
-9.62359e-08
-1.94065e-07
-6.24755e-08
-8.11083e-08
-9.30972e-08
-4.42599e-08
-2.05234e-07
-1.24470e-08
-2.12275e-08
-2.04988e-09
-5.41109e-08
-9.69643e-08
-3.25869e-07
-3.52106e-08
-1.21499e-07
-1.53818e-07
-1.25144e-07
-1.12088e-07
-6.99711e-08
-1.09605e-08
-2.70599e-07
-2.82456e-07
-1.04158e-07
-6.15228e-08
-4.64038e-08
-7.23502e-08
-1.07658e-07
-7.40049e-08
-1.59620e-07
-1.38894e-07
-1.65293e-07
-2.38853e-07
-8.67921e-08
-1.62968e-07
-2.44620e-08
-1.90710e-07
-6.61160e-08
-3.49333e-08
-9.89509e-08
-1.09888e-08
-8.72437e-08
-4.17927e-08
-9.52623e-08
-3.17033e-08
-4.39740e-09
-1.51002e-07
-1.16655e-07
-8.08280e-08
-1.36201e-07
-1.75212e-09
-2.83233e-08
-6.38733e-08
-4.66176e-11
-2.15539e-07
-2.47022e-07
-1.06421e-07
-6.92527e-09
-9.70129e-09
-5.94296e-09
-1.34686e-07
-8.33475e-08
-3.35585e-08
-1.08099e-07
-1.72383e-08
-2.47604e-09
-2.36055e-08
-1.40756e-07
-1.69273e-07
-3.47865e-08
-4.28769e-08
-3.82021e-09
-6.39162e-08
-5.00589e-08
-5.60576e-09
-3.25027e-08
-2.00084e-08
-2.26199e-08
-3.65022e-08
-4.05810e-08
-5.78797e-08
-9.59414e-09
-2.72059e-08
-8.10420e-08
-3.63807e-08
-3.19570e-08
-2.78073e-08
-6.15933e-08
-3.36466e-08
-1.25051e-08
-2.50833e-09
-8.76822e-08
-2.49577e-08
-2.25036e-08
-3.15459e-08
-3.39373e-08
-2.75149e-08
-1.14555e-08
-2.35675e-08
-3.36271e-08
-8.61322e-09
-1.25452e-08
-2.33739e-08
-6.24266e-09
-2.90351e-09
-2.44776e-08
-2.47690e-09
-4.31146e-09
-3.99479e-09
-2.37876e-09
-2.10535e-08
-1.12437e-08
-2.44505e-08
-4.32606e-09
-4.49120e-09
-4.95651e-09
-4.19319e-10
-2.51252e-08
-2.09048e-08
-1.90923e-08
-2.06432e-08
-7.27297e-09
-8.38065e-09
-4.59491e-09
-3.31829e-09
-5.32959e-09
-6.10564e-09
-3.12255e-09
-1.28484e-09
-5.81512e-09
-5.53144e-09
-8.78018e-09
-3.18832e-09
-2.59855e-09
-2.71637e-14
-1.40706e-08
-4.19394e-15
-3.33810e-13
-1.71440e-14
-6.41955e-14
-2.04516e-14
-7.09245e-16
-1.60399e-08
-2.46767e-13
-1.14520e-13
-5.64461e-13
-2.80556e-13
-2.83042e-14
-4.12522e-13
-8.18717e-14
-1.32046e-13
-7.49607e-14
-1.65211e-13
-3.60961e-13
-2.43414e-13
-1.38419e-13
-1.69143e-13
-1.38800e-13
-1.42329e-13
-9.88845e-14
-1.34031e-13
-1.54987e-13
-5.03551e-14
-8.78716e-15
-6.20113e-14
-9.97445e-15
-2.19287e-14
-6.90242e-14
-6.06566e-14
-2.86975e-14
-2.15167e-14
-2.71513e-14
-9.36165e-15
-1.36298e-14
-4.18937e-14
-2.68927e-14
-1.28407e-14
-1.09233e-14
-2.03174e-14
-3.43765e-15
-2.71012e-15
-5.61690e-15
-1.76235e-02
-6.83588e-01
4.71073e-01
1.08814e-01
-2.36503e-01
4.27626e-02
-4.67579e-01
1.45015e-01
-2.79473e-03
-1.26386e-02
2.70452e-02
-1.00852e-02
1.43946e-02
-2.60798e-03
2.67516e-03
1.07173e-03
5.65457e-04
-1.16834e-04
3.20351e-05
-5.76170e-04
3.08851e-04
4.92280e-04
1.24930e-04
-5.66183e-04
1.77068e-04
5.88320e-05
3.00107e-04
-6.36933e-06
3.81570e-05
-3.26690e-05
1.65083e-04
7.58197e-05
1.99489e-04
1.32302e-04
1.47412e-05
2.71417e-04
5.87792e-05
1.00186e-04
1.46551e-04
-1.33180e-04
4.15818e-04
1.19883e-04
-8.11627e-06
-5.21604e-05
2.77946e-05
1.11980e-04
-2.08748e-04
-3.88302e-05
9.30252e-05
-4.51852e-05
7.26255e-05
7.92062e-05
-8.30270e-05
-1.09804e-04
1.07746e-04
6.23642e-05
-1.07790e-05
-8.76540e-05
1.99604e-05
4.96439e-05
4.66277e-05
-8.61272e-06
4.78083e-05
7.48882e-05
1.77017e-05
-2.51922e-05
-2.19700e-06
6.59603e-05
-2.89290e-05
5.28066e-06
-5.35468e-05
2.91259e-06
-5.26604e-05
6.61010e-05
3.46321e-05
4.95714e-05
-5.26300e-06
5.32721e-05
5.14977e-05
1.12798e-05
-4.13825e-05
-3.95225e-05
-1.38922e-05
-2.61453e-05
9.70160e-06
3.81474e-05
5.96933e-05
-3.68218e-05
5.26567e-05
-1.08671e-05
-4.32276e-05
-3.98574e-05
7.17810e-06
2.03031e-05
-2.32693e-05
-3.19556e-06
2.01225e-05
-3.55072e-05
-8.19872e-05
9.77194e-05
-2.45667e-05
-5.34253e-05
1.42928e-05
3.59703e-05
-2.99378e-05
4.66325e-05
-9.48870e-06
1.10110e-06
-9.33028e-07
8.59001e-06
-2.73476e-06
2.31649e-05
4.65125e-06
-2.48049e-05
-5.15931e-06
1.91491e-05
-1.14092e-05
-8.29003e-06
-7.10270e-06
-2.84050e-06
7.29206e-06
1.22325e-05
2.25468e-05
1.31706e-05
-6.56709e-06
-1.01021e-05
1.79788e-06
8.17477e-06
4.06046e-06
1.03669e-05
-1.21824e-05
2.00736e-06
3.29652e-06
1.75668e-06
-5.37346e-06
-1.11241e-05
-2.09738e-06
2.07959e-06
-1.24574e-05
-9.90778e-06
5.09556e-06
-2.38824e-05
-7.52231e-06
-7.84297e-06
1.11916e-05
-1.23734e-06
-1.42548e-05
1.98297e-05
-4.40737e-06
3.76188e-06
-2.38306e-05
-1.34637e-05
8.20403e-06
-1.44899e-06
-4.51896e-06
2.48387e-05
1.60598e-05
-1.22135e-06
7.42333e-06
-6.89236e-06
1.88635e-06
-6.53981e-07
-1.20908e-06
-4.29977e-06
7.18921e-06
-9.91991e-06
-2.97863e-06
-1.04132e-06
3.65095e-06
9.24170e-06
5.29196e-06
3.11958e-06
1.29087e-05
-5.92080e-06
-6.21849e-06
-3.00953e-06
1.51834e-05
-1.71590e-06
-1.32029e-05
1.47563e-05
1.94919e-05
6.61761e-06
-2.08064e-05
-7.95392e-06
9.86172e-06
7.11235e-08
7.30782e-06
-1.27308e-05
1.90376e-06
-1.64693e-05
4.71339e-06
6.87192e-06
5.79575e-06
-7.32844e-06
2.87111e-06
1.19884e-05
-3.92772e-06
5.02165e-06
2.63974e-07
9.68408e-06
2.72053e-05
-9.28259e-07
-1.03450e-05
1.54527e-05
-2.00975e-05
6.59091e-06
-7.70194e-06
1.01645e-05
-7.73103e-06
-2.04796e-06
9.81864e-06
1.14838e-06
-8.38770e-06
-1.67448e-05
-7.32881e-07
-2.65129e-07
1.17578e-06
-1.15866e-05
2.55009e-06
3.38663e-06
1.72841e-05
8.56973e-06
1.31679e-06
4.17426e-06
-3.45374e-06
1.32669e-06
-2.69729e-06
-6.70954e-06
-8.42599e-06
1.54152e-06
-4.83267e-06
9.73993e-06
5.43216e-06
-7.35348e-06
3.17036e-06
-1.77567e-06
1.90446e-06
-2.25573e-06
-1.29559e-05
-1.51388e-06
5.59787e-06
5.72792e-07
7.17458e-06
3.02064e-07
-3.95788e-06
-4.49336e-06
-5.48713e-06
6.22730e-06
5.66093e-06
-1.13458e-05
-3.08118e-06
-4.35486e-06
-3.17349e-06
4.12644e-06
5.97752e-06
3.01480e-06
-1.35181e-06
1.44655e-07
-3.70750e-06
7.05587e-06
5.78274e-06
5.04249e-06
3.58612e-06
-1.34260e-05
-3.34734e-06
-1.15720e-05
-1.02883e-06
4.56145e-08
-4.02008e-06
2.36964e-06
-1.35084e-05
-8.40317e-06
-2.67475e-06
-4.00064e-06
-1.66776e-05
9.31337e-06
2.48012e-06
1.28867e-05
3.50358e-06
-5.95115e-06
1.15408e-06
-5.15224e-06
-6.40108e-07
1.13819e-05
1.49332e-07
-1.51559e-07
-2.36252e-06
-6.15630e-06
-3.10620e-06
1.03442e-06
5.05433e-06
1.17800e-06
-1.15465e-06
-5.65691e-06
-2.95501e-06
1.79826e-06
-5.89205e-06
-7.45938e-08
3.90758e-07
-4.92517e-06
1.10543e-05
6.05654e-06
3.15000e-06
-1.62400e-06
-1.49545e-06
-1.41472e-06
3.33843e-06
-1.83367e-06
4.16502e-07
-1.86008e-06
-1.04461e-06
-2.16471e-06
3.04630e-06
2.35149e-06
4.18727e-06
-5.12793e-06
6.19860e-06
2.95644e-06
-7.21114e-07
-1.45553e-06
-3.76607e-06
2.01337e-06
6.62511e-06
-2.32332e-06
4.19873e-06
-1.56253e-06
7.55984e-07
-5.08398e-06
9.57762e-07
-1.51515e-06
1.23008e-06
-6.09553e-06
1.59961e-06
-6.03019e-06
4.60889e-06
-5.84703e-06
6.25282e-06
6.65182e-07
-8.60153e-07
3.26265e-06
-1.95253e-06
-6.77288e-07
-2.71341e-06
-5.37779e-06
1.38310e-07
4.40052e-06
-1.03823e-05
-6.42026e-06
4.25202e-07
-1.67070e-06
2.93334e-06
-5.91457e-07
1.56359e-06
8.63603e-08
2.65627e-06
2.29933e-06
3.23637e-06
9.80446e-07
-6.09554e-07
-7.20380e-08
8.64442e-07
-1.07960e-06
-1.33619e-06
4.47292e-06
2.52230e-07
8.49792e-07
1.48732e-06
1.15363e-06
2.71548e-06
5.98867e-07
2.06244e-06
-9.22254e-07
2.88566e-06
-1.05485e-06
1.83425e-06
-4.26621e-06
1.33206e-07
2.64085e-07
-1.22867e-06
-5.08936e-07
9.73686e-07
-1.15991e-06
-1.50830e-07
1.61744e-07
-2.40324e-08
-6.55871e-06
4.45740e-07
4.13877e-07
-5.51481e-06
-2.41366e-06
5.63241e-06
2.84885e-06
2.04259e-06
-6.13797e-07
-8.99436e-07
-5.52927e-07
4.70196e-07
-1.15028e-06
-3.66783e-07
3.20782e-06
-1.62311e-06
1.40020e-06
9.81626e-07
1.06648e-06
7.76195e-07
4.77682e-07
-2.68163e-06
9.20592e-07
-1.48106e-07
-1.79027e-06
-2.59401e-06
-1.87567e-06
5.20886e-08
4.94632e-07
-2.79427e-07
-2.30157e-06
-1.19483e-06
5.11010e-07
-2.48906e-06
-2.90750e-08
-1.02089e-06
3.82162e-07
3.79865e-07
2.51677e-06
2.91963e-07
-2.32527e-06
-7.03975e-07
-1.38531e-06
1.64661e-06
-1.33097e-06
-4.26266e-08
2.68609e-06
5.96446e-08
1.27774e-06
1.79104e-07
-7.16332e-07
-6.07171e-07
4.91353e-08
2.70601e-07
7.45584e-07
-8.08530e-07
8.17523e-07
5.17811e-07
-2.03326e-07
-1.04288e-06
-1.15150e-06
2.51755e-07
1.74473e-07
-1.79470e-06
-1.11678e-06
-1.14348e-07
-7.94154e-07
-1.02128e-06
1.70124e-06
1.57762e-06
-2.15969e-07
-1.43995e-06
-1.38461e-06
8.79269e-07
1.54375e-06
-2.09670e-06
-7.39257e-07
-6.39190e-07
6.47157e-07
5.43165e-07
4.81324e-07
2.30075e-07
-2.73528e-06
6.04972e-07
5.69123e-07
-2.42386e-06
-4.38689e-07
4.30837e-07
-8.29980e-07
-1.02801e-06
-6.58561e-07
-1.35004e-07
-2.25759e-06
-3.22008e-07
-2.31167e-07
1.95717e-06
8.00545e-08
-5.88804e-07
6.66414e-07
2.20483e-06
5.01952e-07
6.69525e-07
3.73537e-07
2.24005e-07
-1.47400e-07
-4.24035e-07
1.11402e-06
1.97078e-07
5.21454e-07
-1.61791e-07
4.50962e-07
-2.23198e-07
3.76008e-07
-5.75359e-07
-5.81533e-07
-1.40830e-07
5.77131e-07
6.67635e-07
1.34644e-06
-3.96552e-07
4.49032e-07
-7.95213e-07
1.57838e-06
-2.48101e-07
-2.70724e-07
-2.68856e-07
9.35037e-07
1.34863e-06
-1.68109e-06
1.08280e-06
-1.75399e-06
-4.17174e-07
3.87181e-07
3.01572e-07
1.87653e-06
1.54560e-06
-5.96470e-07
4.45032e-07
2.66392e-07
5.78535e-08
-1.16755e-07
3.40194e-07
9.20349e-07
1.02463e-07
1.74151e-06
-5.03758e-08
-9.30138e-07
-9.09360e-08
-1.88351e-06
-1.11613e-06
-7.35021e-09
-3.03961e-08
3.43602e-06
8.83159e-07
-3.53097e-06
-2.84057e-06
-1.14949e-06
-2.52566e-07
1.30405e-06
2.90415e-06
2.01273e-07
-1.35019e-06
-2.42948e-07
3.46065e-07
7.49539e-07
-3.45864e-08
3.69749e-07
-1.35831e-06
6.48487e-07
4.02560e-07
9.13022e-08
2.91078e-07
1.57459e-07
-5.92597e-07
4.85324e-07
-5.92199e-07
1.16519e-06
8.08820e-07
8.54069e-07
2.91500e-07
-1.09492e-06
3.84704e-08
-3.84735e-07
1.57583e-07
-7.60304e-08
1.17493e-07
-8.92259e-07
-2.24683e-07
-1.02762e-06
-6.61627e-07
2.26905e-07
5.96253e-08
-3.14158e-07
-3.75938e-07
4.46968e-07
3.52866e-07
3.00775e-07
-8.70503e-07
-2.87377e-07
-7.27129e-08
3.60868e-07
1.01409e-06
-3.85947e-07
1.04130e-06
3.59858e-08
-5.51626e-08
-1.00177e-06
1.21615e-07
-4.64719e-07
-1.20209e-07
-2.56992e-07
6.13173e-07
-9.80393e-08
-8.95017e-08
4.09219e-07
-4.31860e-07
1.69638e-07
-3.04813e-07
-1.88591e-07
-5.18115e-07
-5.11574e-07
1.04304e-06
4.27495e-07
-2.17114e-07
1.26635e-07
-6.58930e-07
7.22478e-08
8.99475e-07
1.42330e-07
4.14776e-07
4.01603e-07
2.03541e-07
4.47460e-07
3.77347e-07
-8.48937e-08
-3.22754e-08
-3.29579e-07
4.41535e-07
-3.14749e-07
6.50559e-07
1.84971e-07
-2.50146e-07
8.27236e-07
-1.27847e-07
-2.14012e-07
-8.08611e-07
-5.46000e-07
5.25771e-08
1.45019e-07
3.03366e-08
1.68995e-07
4.30353e-07
4.57352e-07
-3.37553e-07
-3.27977e-07
-1.83833e-07
-7.26516e-08
-1.34119e-07
-3.56373e-07
-3.30409e-07
-2.33565e-07
-6.29833e-07
-1.29019e-07
8.86837e-08
-3.52588e-09
-2.85434e-07
6.30030e-08
-3.79832e-07
-2.45470e-07
-1.44267e-07
-5.55542e-08
1.78346e-07
1.79210e-07
9.26512e-08
-3.86325e-07
-5.73720e-08
-6.52784e-08
3.58010e-07
5.16165e-08
3.82496e-07
1.03838e-07
1.13473e-08
2.45666e-07
-2.10692e-07
2.38820e-07
3.03891e-07
3.48605e-07
-7.75632e-09
-2.25885e-08
-3.95827e-08
-1.63508e-07
2.48434e-07
-2.28076e-09
1.15422e-08
1.39792e-08
-3.32173e-07
-1.45466e-07
-5.04246e-07
-1.00928e-08
-3.24329e-07
2.61699e-08
2.88165e-08
2.79803e-07
2.53562e-07
2.59041e-07
-9.24753e-08
1.35221e-07
1.04712e-07
-4.82854e-08
2.20399e-07
4.21167e-07
2.54930e-07
-1.35369e-07
-9.75495e-08
-2.33834e-07
-2.18788e-07
1.16865e-07
2.78811e-07
-4.60451e-07
5.06251e-08
2.56462e-07
-4.27256e-07
-5.34380e-07
-3.76451e-08
-8.90112e-08
7.20167e-08
2.70504e-07
-7.39477e-08
-4.94008e-07
-2.63042e-07
-3.38242e-10
-4.00911e-07
1.00260e-07
-7.38981e-08
-2.74023e-07
-1.25572e-07
-4.26556e-07
-6.16224e-08
-2.72898e-07
-1.47837e-07
9.40199e-08
1.01837e-07
4.42609e-09
-1.08876e-07
-1.61719e-07
1.02399e-07
-3.02096e-08
3.13982e-07
1.32503e-07
-7.32587e-08
-3.00492e-08
-3.79647e-07
-1.54566e-07
-2.49816e-07
1.44106e-08
2.98659e-07
-6.93636e-08
-3.20327e-08
-1.09237e-07
-5.84994e-07
-2.68908e-07
-8.83321e-08
3.04279e-07
-1.67164e-07
-1.98236e-07
-2.19278e-07
-3.14752e-07
-2.41038e-07
-7.27247e-08
8.75073e-08
-7.56727e-08
-4.56071e-08
-4.86025e-08
-2.04336e-07
5.63464e-08
-3.03746e-07
-1.34281e-07
6.76755e-08
-6.57735e-08
-1.48796e-07
5.00670e-08
-1.16258e-07
4.58430e-08
-9.11697e-08
1.34393e-07
-2.23153e-07
-3.16192e-07
3.23441e-07
3.98531e-07
-2.77137e-07
1.40944e-07
2.38906e-07
1.60858e-07
2.67450e-07
-2.01718e-07
1.17458e-07
2.76667e-07
1.69720e-07
7.68443e-08
8.43640e-08
1.86855e-07
-3.86893e-08
6.73764e-08
2.10175e-07
2.61558e-07
1.86771e-07
1.30584e-08
2.98223e-07
2.30393e-07
1.52166e-07
2.05748e-07
-2.57735e-08
-1.26498e-07
1.24722e-07
2.66833e-07
1.27458e-07
1.23367e-07
-8.92149e-09
1.61729e-07
2.89774e-07
1.56303e-08
-1.12714e-07
-6.34656e-08
1.91965e-07
2.05812e-07
7.86565e-08
2.92158e-08
-4.53015e-08
-7.54978e-08
9.01266e-09
5.38967e-09
5.75845e-08
8.17219e-08
1.53112e-08
5.35322e-08
2.05159e-08
-1.42082e-07
7.77745e-08
1.96912e-07
-1.98082e-08
1.78788e-08
-2.45607e-07
6.16027e-08
2.85723e-07
3.78465e-08
-6.56411e-08
1.59222e-07
2.59231e-07
1.68359e-07
1.43379e-07
-1.75584e-08
-6.53773e-09
1.59301e-07
-7.82500e-08
-1.97446e-07
2.15985e-07
-1.74480e-07
8.33131e-08
4.46756e-08
1.88334e-07
-2.50889e-08
-9.22249e-08
-2.01076e-07
-9.20811e-09
4.71403e-08
3.20971e-08
-1.32903e-07
1.66999e-07
-5.51313e-08
7.44922e-08
2.01847e-07
-1.50102e-07
-1.83784e-09
2.07438e-07
-1.81607e-08
3.41200e-08
4.79497e-08
-2.89078e-08
1.55273e-07
1.57170e-07
-9.28960e-10
-1.07599e-07
2.10795e-07
1.00216e-07
-6.23939e-09
-4.72705e-09
4.83339e-08
-7.19067e-08
1.70054e-07
2.62227e-08
-7.48005e-08
4.66882e-08
-7.26244e-08
1.64646e-07
1.57824e-07
1.26077e-07
8.54824e-08
1.18168e-08
-2.66131e-09
1.39168e-07
-2.15534e-09
3.05636e-09
-5.06013e-08
1.44840e-08
8.25813e-08
1.45802e-07
7.43085e-08
3.20685e-08
1.15737e-07
1.14743e-08
2.11431e-08
1.80107e-07
2.39977e-07
6.10845e-08
2.39108e-08
3.11650e-08
-7.97009e-09
5.39506e-08
1.38133e-07
1.08265e-07
3.49954e-08
-5.27222e-08
-5.72306e-08
1.01902e-07
3.03703e-08
1.39530e-07
2.24450e-08
3.76100e-08
-2.29439e-08
4.50892e-08
2.47993e-08
-5.16272e-08
1.00962e-07
7.10243e-08
-3.98413e-08
2.83513e-08
6.23471e-08
8.45600e-08
2.75567e-08
2.14610e-08
7.40725e-08
-4.46506e-08
-5.25880e-09
6.78573e-08
3.07583e-08
-1.06518e-08
-1.37807e-08
8.57636e-09
8.75355e-08
3.11163e-08
-7.85990e-09
-1.12394e-09
2.77795e-08
-7.30261e-10
2.30818e-08
-3.43619e-09
2.02701e-08
1.16392e-09
1.05573e-08
-7.75761e-09
-3.33141e-09
6.98813e-09
2.13965e-08
4.37214e-09
2.18838e-09
-6.41148e-09
-3.91700e-09
-1.55484e-09
-1.58034e-09
1.10987e-08
-4.40065e-10
1.47178e-08
5.31408e-09
1.75033e-09
8.07721e-09
5.89646e-09
-7.98395e-09
5.22697e-09
-6.43951e-09
4.07914e-09
-1.16402e-09
1.93489e-09
2.59417e-09
4.31512e-09
-3.27450e-09
6.07533e-09
1.61897e-09
-2.29725e-09
4.58776e-09
4.48649e-09
1.96409e-09
-1.33350e-09
9.72193e-09
-5.02683e-09
-1.41185e-09
1.09743e-09
4.53170e-09
3.04529e-09
-5.63543e-09
9.85125e-09
5.20914e-09
-2.04158e-09
9.55796e-10
8.62911e-11
2.11748e-09
-9.43796e-10
-5.30784e-10
2.54862e-09
-1.14138e-09
3.01593e-10
2.20239e-09
-4.32793e-11
-4.24245e-09
1.39088e-09
-4.58343e-10
-3.63766e-09
-4.27363e-11
-1.04057e-09
-2.54967e-09
2.97167e-09
2.65663e-10
-1.20996e-09
1.92251e-09
1.31581e-09
-2.98008e-09
1.24298e-09
2.30890e-09
1.16275e-09
-1.31830e-10
3.46377e-10
1.33949e-09
2.71356e-10
-1.13251e-09
5.01690e-10
-8.01188e-10
1.33687e-09
-1.87970e-11
5.36422e-12
9.03252e-10
-1.66520e-02
-6.33297e-01
-5.16795e-01
3.06237e-01
-4.83058e-02
6.09009e-03
4.31375e-01
-2.12569e-01
4.43756e-03
2.75936e-02
-4.81080e-02
1.85188e-02
-2.41849e-02
1.01404e-02
-5.28466e-03
-9.58069e-04
4.62322e-04
-3.60009e-04
-4.61925e-05
9.14259e-04
4.86323e-04
-4.40337e-04
9.82126e-05
7.47459e-04
2.11780e-05
-1.49711e-04
1.52129e-04
-2.44465e-04
6.68265e-04
-2.62409e-04
-1.79119e-04
-1.71462e-04
9.26877e-05
2.01395e-04
-4.23373e-05
1.41591e-04
1.12738e-04
-9.49610e-05
2.39175e-04
1.16315e-04
-4.85678e-05
4.95824e-06
-9.16506e-05
7.11070e-05
9.85596e-05
-6.67104e-05
1.40300e-04
-3.30461e-05
9.04329e-06
-8.97524e-05
3.22098e-05
2.01469e-05
-3.13904e-05
3.86788e-05
-1.18577e-05
-1.07111e-04
-2.94050e-05
1.72125e-04
-1.42018e-06
-6.46232e-05
9.04997e-05
1.74356e-05
-2.14501e-05
-3.32479e-05
-4.32395e-05
5.29013e-05
1.01866e-04
1.63462e-05
-8.79335e-06
1.05971e-05
2.35654e-05
-9.86639e-06
5.82673e-05
-2.19220e-05
-8.00055e-05
-8.13507e-05
1.59635e-05
-6.70546e-05
-1.20349e-05
-3.24763e-06
-4.42619e-06
-8.90647e-06
2.05488e-06
-4.53777e-05
-2.76558e-05
-1.46812e-06
-6.16915e-05
8.64957e-05
-5.50204e-05
-7.98315e-06
2.22778e-05
1.50737e-05
-3.48720e-05
-2.16593e-05
5.47442e-06
2.09424e-05
-2.24517e-05
4.93992e-05
1.88928e-05
-8.30867e-05
-4.52920e-06
6.12867e-06
-1.87969e-05
-6.55341e-05
2.04728e-05
-2.49447e-05
2.41076e-05
1.11196e-05
-1.29083e-05
-8.44001e-06
-4.82160e-06
-4.95372e-05
3.57133e-05
3.01044e-05
-9.56121e-07
-1.71625e-05
4.51421e-05
1.18589e-05
1.07722e-05
2.83875e-06
-2.40284e-05
4.06497e-06
-4.47054e-05
-2.26225e-06
-8.57304e-06
1.62022e-06
9.09770e-06
-8.92742e-06
-1.13453e-06
1.73993e-06
-8.53501e-06
-7.30749e-06
-1.57018e-05
-1.86319e-05
-5.69937e-06
3.25595e-06
1.24759e-05
-6.81595e-06
-4.39261e-06
-1.01171e-05
2.77991e-05
3.63577e-05
-8.33977e-06
1.85594e-05
-3.23197e-05
1.79500e-06
1.11265e-05
-2.19491e-05
9.11148e-06
-2.95706e-05
-9.91764e-06
-7.21886e-06
-2.19417e-05
3.79226e-06
-2.47007e-05
-3.62840e-05
5.97544e-06
-1.28999e-05
-3.33487e-06
2.29361e-05
2.44586e-05
-9.50967e-07
3.32881e-06
4.99516e-06
-6.34230e-06
1.04542e-05
7.97295e-06
1.84395e-06
-1.09225e-05
-2.46386e-05
-1.51420e-05
-3.54253e-06
-3.31499e-05
3.51495e-05
1.62813e-05
-7.64637e-08
-1.09037e-05
9.30424e-06
2.91221e-06
-5.88217e-06
-1.78221e-05
2.29486e-06
3.11243e-05
1.36738e-05
-1.31783e-05
4.50069e-06
-3.37676e-06
3.32144e-06
1.02374e-05
7.73212e-06
3.21608e-06
1.38404e-05
6.44555e-06
1.25649e-05
-8.86526e-06
3.98938e-06
1.24327e-05
1.23520e-05
-1.11981e-05
-2.96834e-05
-4.99015e-05
1.39750e-05
1.68068e-05
-2.39999e-05
4.76152e-05
-2.00107e-05
4.12483e-06
-4.52609e-06
1.45043e-05
-3.20813e-06
2.61499e-06
7.06913e-07
-3.74764e-06
1.86987e-06
1.01093e-05
3.33650e-06
-3.39337e-06
3.19339e-05
-1.15416e-05
-2.61459e-05
-1.90016e-05
-4.25994e-06
-6.52557e-06
-9.93795e-07
-1.02067e-05
-2.04031e-05
-1.44250e-06
4.90077e-07
1.06054e-05
-3.17508e-06
2.15258e-05
-2.01841e-05
-9.00710e-06
1.17796e-05
-5.62936e-06
9.85688e-06
-1.28848e-06
1.69796e-05
2.21035e-05
5.72531e-06
-6.04857e-06
3.26536e-06
-1.00450e-05
3.36321e-06
1.32606e-06
1.73138e-05
5.62503e-06
-6.03429e-06
-1.18057e-05
1.25221e-05
-6.88026e-06
1.12662e-05
-3.54177e-06
3.75348e-06
-1.42511e-05
1.88855e-06
2.19506e-06
-9.40363e-06
9.20609e-06
-2.26641e-06
3.93147e-06
-9.46671e-06
-8.41650e-07
4.22225e-06
1.31966e-06
-3.48784e-06
-2.78651e-06
-2.47325e-06
-5.16737e-06
2.36833e-06
1.10273e-05
6.15212e-06
6.42437e-07
2.39628e-06
2.56263e-05
-2.20556e-05
3.51644e-06
-8.17607e-06
-6.74169e-06
1.53514e-05
-4.51002e-06
1.06840e-05
-2.76446e-06
-1.36876e-05
-3.60991e-06
-1.62186e-06
3.57504e-06
1.04156e-05
8.16171e-06
3.01632e-06
-3.67934e-06
3.86396e-06
3.09861e-06
6.94081e-07
7.01879e-07
4.58613e-06
6.57532e-06
3.01669e-06
-1.11067e-07
6.62120e-06
-1.17384e-05
-4.51873e-06
-3.48210e-06
-3.72806e-06
1.81036e-06
4.72793e-06
-2.04612e-06
-3.19925e-06
-9.37513e-07
3.41620e-07
-2.08032e-06
-1.18457e-06
2.83266e-06
-5.43783e-06
-1.26617e-06
-3.97326e-07
-9.27297e-06
-2.04735e-06
5.37263e-06
2.19147e-06
5.66631e-07
-5.07242e-06
-7.02625e-06
2.94549e-07
-4.24970e-06
6.97654e-07
1.16786e-06
1.64345e-06
-5.07345e-07
-3.18416e-06
-9.42295e-06
1.10408e-05
-4.35771e-06
6.11990e-06
-2.22866e-06
9.84324e-06
-1.41023e-07
2.33741e-07
3.29447e-06
-3.44367e-06
2.99553e-06
-1.69860e-06
-5.50952e-07
9.22571e-06
-4.20199e-06
-2.88922e-06
9.07693e-06
4.63316e-06
1.27041e-06
-4.53799e-07
-5.00798e-06
-9.54979e-07
-2.15559e-06
-1.23679e-06
-5.36063e-06
-4.98604e-06
1.90369e-06
-3.29357e-06
4.88448e-07
3.11438e-06
1.88731e-06
2.00763e-06
-2.20312e-07
-4.23266e-06
8.02359e-07
3.12738e-06
-5.56195e-07
2.25915e-06
-1.93810e-06
-2.57254e-06
-1.45602e-06
1.42756e-06
-2.16348e-06
4.24969e-06
-5.26239e-06
4.41337e-06
-5.48029e-07
-9.85789e-08
1.62992e-06
-2.90894e-07
-8.90833e-07
-8.54332e-07
-6.73747e-07
-3.87339e-07
-3.37131e-06
7.76492e-06
-3.20884e-06
4.36909e-06
4.54736e-06
4.14618e-06
-4.13584e-06
-2.73447e-06
-3.31217e-06
-6.19131e-07
3.76619e-07
1.33577e-06
-1.67867e-06
1.16808e-06
1.26671e-06
-5.70483e-06
-2.63319e-07
1.49342e-06
-3.14634e-07
-2.94585e-06
1.58795e-07
-3.10869e-06
4.47935e-06
1.18350e-06
5.50261e-07
3.12252e-06
2.72050e-06
3.23708e-06
9.09642e-07
-3.23387e-06
2.74921e-07
4.65705e-06
2.49387e-06
1.23580e-06
3.36557e-06
1.85680e-07
2.72866e-06
-1.62459e-06
-8.34494e-07
-4.25002e-06
-5.44131e-07
4.66454e-07
1.77847e-07
4.25608e-06
-1.74121e-06
-9.32905e-07
2.97544e-06
-5.66922e-06
-1.28525e-06
-2.27432e-07
-2.21446e-06
-5.45698e-07
-1.01802e-06
-1.94354e-06
-1.03826e-06
9.59814e-07
2.78212e-06
-3.59146e-06
-1.35587e-06
-2.95946e-07
-5.29285e-07
5.88601e-07
9.81246e-07
2.18241e-06
1.64899e-06
3.32869e-06
-2.11768e-06
-1.98643e-07
2.81326e-06
7.07997e-07
-8.42819e-07
2.53748e-07
2.30150e-06
1.19051e-06
-1.04420e-06
-2.85139e-08
-2.61556e-08
1.38417e-06
-1.29171e-06
-4.51917e-07
-7.45183e-07
-8.81076e-07
-4.49902e-07
4.83712e-06
-5.50259e-07
-6.25076e-07
3.08077e-07
1.00785e-06
2.69062e-07
1.16939e-06
6.11458e-07
1.62692e-06
2.32443e-06
2.14041e-06
2.61155e-07
9.01628e-07
-1.62315e-06
7.19289e-07
1.41555e-06
-1.28615e-06
-1.42631e-06
-2.72435e-07
-1.53126e-06
-1.66021e-06
-2.07637e-07
-9.35542e-07
-4.81119e-07
-1.13019e-06
-1.64762e-06
-3.83592e-09
-1.03790e-06
-9.53381e-08
1.41158e-06
-1.35233e-06
7.69194e-07
-5.87491e-07
5.36796e-07
9.96009e-07
-2.80371e-06
-1.81447e-07
9.82795e-07
-5.59108e-07
7.47235e-07
-6.53980e-07
-5.16477e-07
1.09108e-06
7.76721e-07
-9.79324e-07
-6.95172e-07
9.41392e-07
-1.45647e-06
1.83091e-06
-2.47874e-07
8.89876e-08
-5.49599e-07
-1.63178e-06
-9.29518e-07
-5.28562e-07
1.11259e-08
2.92538e-07
-2.73166e-07
-2.56987e-07
-1.17720e-06
-6.64887e-07
4.04315e-07
-1.69740e-06
-1.24752e-07
1.23788e-06
-1.50094e-07
1.18069e-06
1.31335e-06
-4.70258e-08
1.43638e-07
-2.07186e-06
-1.46599e-06
2.53415e-06
2.69127e-06
-2.18039e-07
5.24364e-07
-1.10678e-06
-2.18964e-06
-1.02556e-07
3.87710e-07
-7.10544e-07
-1.96162e-07
-1.03430e-06
3.73009e-09
-8.24868e-07
6.94506e-07
-2.99384e-07
-4.52813e-07
-7.59027e-07
-2.49759e-08
-1.40906e-07
1.45451e-07
-7.66560e-07
5.13734e-07
-1.14590e-06
-1.17355e-06
-4.19760e-07
-3.40822e-07
1.11239e-06
-7.67364e-08
2.75858e-07
-2.88793e-07
-5.60623e-08
5.01606e-07
1.56604e-07
9.57025e-07
1.44668e-06
4.63621e-07
1.80850e-07
6.23861e-07
-3.66921e-07
1.28450e-07
9.00371e-08
-1.08876e-06
-3.95165e-07
7.94676e-08
4.52402e-07
6.86244e-08
-7.26826e-07
-5.68477e-07
-5.03172e-08
-1.80200e-07
8.54525e-07
1.81507e-07
1.33934e-06
5.04201e-07
8.10330e-07
-6.87028e-07
-9.50299e-08
-6.47460e-07
-2.63472e-07
-5.82510e-08
-1.02178e-07
-6.05142e-07
1.33932e-07
4.07519e-07
6.80058e-07
1.54711e-07
8.74034e-07
-2.22366e-07
-5.86359e-07
-1.52016e-07
-5.51631e-07
1.22916e-07
-7.75273e-07
-1.65740e-06
-6.02646e-07
-7.97159e-07
-4.50345e-07
5.86565e-07
-6.29990e-07
-6.60101e-07
-4.98451e-07
-6.88435e-07
6.51627e-07
-5.78421e-07
3.12364e-07
-6.48055e-07
-3.94862e-07
-4.29890e-07
-4.44505e-07
-4.14333e-07
4.71511e-07
1.28997e-07
3.84798e-07
-5.96367e-08
-3.57401e-07
-7.02853e-08
-1.00013e-07
-5.09734e-07
-3.40259e-07
2.99381e-07
5.03073e-07
5.21236e-07
1.13663e-07
5.21987e-07
4.62780e-07
3.63900e-07
-9.43504e-08
6.29799e-07
3.29899e-07
4.32686e-08
7.39498e-08
-2.22386e-07
-2.82648e-07
-1.85157e-07
1.47452e-07
-5.43172e-07
-2.46282e-07
-4.24217e-07
3.67623e-07
-2.86207e-07
3.28674e-07
-3.24569e-07
-1.44100e-07
8.91502e-08
-8.39479e-08
1.47461e-07
-4.24394e-07
-9.92340e-08
-3.22328e-07
7.21032e-08
-5.86533e-08
1.40597e-07
-3.90341e-07
-1.00303e-07
6.48322e-07
2.23990e-08
-1.84657e-07
-3.98345e-07
-6.64278e-08
-2.03792e-07
-2.02608e-07
4.65662e-07
-1.29930e-07
8.66087e-07
-2.94638e-07
-1.28989e-07
-2.96999e-07
-9.01782e-09
-6.67773e-07
-7.28667e-07
-5.03318e-07
4.68526e-07
1.56563e-08
-3.12780e-07
-3.10689e-07
-4.83187e-07
-3.16090e-07
-3.61072e-07
-3.37393e-09
2.12644e-07
1.66184e-07
2.92101e-07
2.38606e-08
3.49233e-07
1.89893e-07
3.56457e-07
3.56189e-08
2.88060e-07
2.49862e-08
9.47281e-08
1.44333e-07
7.32813e-08
-5.77308e-07
7.60800e-09
5.63986e-07
4.79169e-07
1.57375e-07
7.41757e-07
3.40361e-07
4.20056e-08
5.34023e-08
3.40677e-07
4.72773e-07
3.42992e-08
7.77455e-08
1.61212e-07
-3.68022e-07
2.32638e-08
2.35515e-07
1.00854e-07
3.14598e-07
-2.91460e-07
1.35614e-07
1.21306e-07
-2.33758e-07
2.25034e-07
2.60365e-07
2.73621e-07
1.08780e-07
2.90137e-07
6.41954e-07
6.96035e-08
2.31589e-07
1.72070e-07
3.32385e-08
6.31607e-07
5.47865e-07
3.63912e-07
-1.09208e-08
-5.79178e-08
2.19304e-07
-8.75061e-08
4.54737e-07
1.32862e-08
4.77184e-08
2.84029e-07
-1.90897e-07
2.34235e-08
2.68142e-07
2.11690e-08
-8.79202e-08
3.53839e-07
1.30539e-07
-2.10674e-07
1.09095e-07
-9.60384e-08
3.08813e-08
3.64851e-07
-1.99400e-07
1.95722e-07
1.12078e-07
2.60938e-07
2.54410e-07
-6.14398e-07
-3.39391e-07
1.89565e-07
-3.93721e-07
-8.93148e-08
-3.47343e-07
-5.17518e-07
3.44145e-07
-1.36742e-07
4.01580e-08
-5.38110e-07
-1.48546e-07
-6.97806e-08
-4.80759e-07
1.63049e-07
-1.67634e-07
-1.20700e-07
-2.51662e-07
-4.60587e-07
1.34610e-07
-4.96640e-07
-1.00571e-07
-4.28187e-07
-7.01541e-09
-4.76695e-07
1.92157e-07
-1.96237e-07
-2.88732e-07
-2.40913e-07
-5.89095e-08
-2.31475e-08
-4.31392e-07
-4.57739e-07
3.74651e-07
1.24787e-07
2.46025e-07
-3.59650e-07
-2.25077e-07
1.57830e-07
4.66458e-08
5.16225e-08
4.14381e-07
4.75383e-08
9.87264e-08
-1.65253e-07
-1.93824e-08
-2.12308e-07
6.05686e-08
-3.44553e-08
1.42034e-07
-2.82027e-07
-2.76139e-07
7.11833e-09
-2.14494e-07
3.63305e-07
-9.78042e-08
-3.22127e-07
-8.37406e-08
2.66246e-08
-3.94568e-07
-1.94116e-07
-2.84155e-07
-2.66953e-08
3.80895e-09
-1.76733e-07
1.79163e-07
6.49899e-08
-5.00805e-08
-3.18614e-07
4.24374e-07
-1.13309e-07
-1.82997e-07
-1.91865e-07
1.32060e-08
4.83961e-09
4.00922e-07
1.96352e-07
-7.50709e-08
-2.16480e-07
-6.44545e-08
-1.77988e-07
7.07454e-08
-3.34668e-08
-1.73134e-07
1.92537e-07
7.77425e-08
-1.75018e-07
-1.34286e-07
-1.07225e-07
-5.18468e-08
-8.68191e-08
-2.11655e-07
-2.78719e-08
7.01198e-08
3.01579e-07
-4.35799e-07
-2.12431e-07
-6.98908e-08
-4.15220e-08
-9.26128e-08
7.04116e-08
1.32877e-08
-2.62235e-08
2.54173e-08
3.06339e-07
8.38433e-08
-2.43267e-08
-1.94503e-07
-2.44219e-07
-3.63941e-08
6.16552e-08
-9.32716e-08
-1.69370e-07
-1.23813e-07
-4.39401e-08
1.65374e-08
-1.48813e-08
5.05818e-08
-2.05490e-07
-1.91746e-07
8.24835e-10
-9.59673e-08
-2.50604e-08
-7.82404e-08
-1.50505e-07
-1.47069e-07
-1.00663e-07
-1.47523e-07
1.37708e-08
-2.22230e-08
-5.94858e-08
-2.88729e-07
-1.87142e-07
-2.24399e-08
8.88297e-08
4.51663e-08
-7.61266e-08
3.30328e-08
-2.64231e-07
-4.60179e-08
-4.24075e-08
8.63066e-08
-8.75769e-08
-5.22801e-08
2.56058e-07
-2.23312e-07
-1.20761e-07
7.89050e-08
-1.56111e-08
-8.32894e-08
-1.26970e-07
3.10848e-08
-5.72022e-08
1.59687e-08
6.90899e-08
-2.35420e-08
-1.09669e-07
-3.03833e-08
3.76102e-08
1.05270e-08
-9.36030e-09
-1.02278e-07
-4.28753e-08
2.77129e-08
3.12243e-08
-2.36269e-08
3.34949e-08
5.42757e-09
4.05825e-08
-5.41966e-08
7.90514e-09
-7.99085e-10
2.36285e-08
1.56148e-08
-8.38655e-09
-4.09341e-08
4.05843e-09
8.35154e-10
1.49377e-09
-7.06233e-09
5.88695e-09
-1.09925e-08
-2.78430e-08
-1.26681e-08
-1.85294e-08
4.18100e-09
2.37102e-09
-2.55900e-08
-1.58636e-08
-9.23267e-09
-3.24513e-08
2.88820e-10
-6.55072e-09
-1.15795e-08
-7.95888e-09
-4.98254e-09
-1.33968e-08
9.23171e-09
-9.80723e-09
-1.22503e-11
1.09974e-09
-6.75686e-09
-6.26155e-09
3.75195e-09
-1.95863e-09
-8.67431e-09
2.44231e-09
-2.98737e-10
-5.04699e-09
-7.60996e-09
-8.37070e-09
6.66808e-09
-5.79966e-09
-1.36403e-08
2.96873e-09
-2.65900e-09
5.69369e-10
5.37668e-10
3.40155e-09
2.17681e-09
-3.93793e-09
7.48476e-10
6.64687e-09
-1.63512e-09
2.22716e-10
6.96814e-09
-1.31875e-09
-1.98671e-09
6.27922e-09
5.92330e-10
-1.61407e-09
3.37797e-09
-3.54460e-09
3.20180e-09
7.42346e-10
-5.69757e-10
1.83463e-09
5.98541e-09
-4.82293e-09
-1.30936e-09
-4.97155e-09
-1.99485e-09
-3.20634e-10
-5.05059e-09
-1.10067e-09
3.02541e-09
1.05480e-09
1.53554e-09
-2.23103e-09
-2.73985e-10
3.23103e-10
-8.54688e-10
-9.02513e-03
-2.25835e-01
-4.40875e-01
-3.81520e-01
4.17951e-01
-6.83409e-02
-2.25193e-01
5.76503e-01
-1.41761e-02
-8.26463e-02
1.62978e-01
-6.40224e-02
8.79950e-02
-2.74450e-02
1.74521e-02
4.23287e-03
6.48422e-04
-1.97397e-04
1.31428e-03
-4.41234e-03
-3.17519e-04
1.19502e-03
-1.64081e-04
-4.95729e-03
4.01083e-04
1.53604e-04
5.92016e-05
5.63156e-04
-1.73273e-03
7.13086e-04
5.26838e-04
2.61905e-04
5.07383e-04
1.62808e-04
3.20779e-05
8.02967e-04
-2.27397e-04
2.68146e-04
-2.70716e-04
-2.63400e-04
8.89605e-04
5.03111e-05
5.80891e-04
-1.86661e-04
2.84707e-04
-7.99629e-05
-4.87400e-04
2.49140e-04
1.74016e-04
-8.67357e-05
-4.19890e-05
-1.82779e-05
1.39862e-04
-1.22396e-04
-8.46958e-05
1.22959e-04
5.77544e-05
-3.08320e-04
9.84042e-06
1.92728e-04
-4.82999e-04
2.94676e-05
7.75171e-05
5.28219e-05
5.51472e-05
-2.23795e-04
-3.96417e-04
2.06309e-04
7.76371e-05
6.18248e-05
3.21304e-04
3.66855e-05
-2.09300e-04
4.65541e-05
1.81126e-04
1.47036e-04
-8.20499e-05
2.23010e-04
-1.60670e-04
2.56940e-05
5.30509e-06
1.13849e-04
-1.53748e-04
8.56430e-05
2.69235e-05
-2.78147e-05
7.13044e-05
-1.78076e-04
1.59293e-04
2.27937e-05
-6.10938e-05
5.80180e-06
3.15430e-05
5.42480e-05
4.16388e-05
-1.69210e-05
4.05224e-05
-1.34184e-04
1.09066e-04
1.37104e-04
2.17315e-05
7.68471e-05
4.97181e-05
1.86309e-04
-4.00334e-05
-1.34401e-05
-3.24902e-05
-6.78406e-05
3.87580e-05
4.83416e-05
-1.49003e-05
8.86584e-05
-1.53499e-04
-1.28322e-04
3.19401e-05
5.29843e-06
-8.81462e-05
7.56175e-05
3.37488e-05
-1.98266e-05
7.39754e-05
-1.84518e-05
6.39633e-05
5.62231e-06
8.14966e-05
-9.99032e-06
-4.16887e-05
2.07519e-05
4.93888e-05
-4.75991e-05
3.11487e-05
2.74214e-05
5.64837e-05
-1.93374e-05
4.77698e-05
-2.52485e-05
-3.25654e-05
-1.32578e-05
-5.54466e-06
3.66656e-05
-3.66312e-05
-6.43458e-05
6.53672e-05
-5.23919e-05
5.32005e-05
1.54239e-06
-4.91484e-05
9.29577e-06
2.89600e-05
7.50714e-05
3.81560e-05
4.51280e-05
5.55035e-05
-1.18349e-05
7.15156e-05
7.44223e-05
-5.92575e-06
5.00214e-06
-4.56047e-06
-5.54653e-05
-6.08001e-05
-9.12873e-06
-1.68687e-05
-5.31775e-05
4.08796e-06
-1.15113e-06
-3.57418e-05
1.63979e-06
6.99925e-05
5.53887e-05
7.19326e-05
-5.05076e-05
8.11214e-05
-7.96549e-05
-2.81527e-05
2.47475e-05
2.19919e-05
-4.79088e-05
1.65197e-06
4.33537e-05
5.64201e-05
7.72011e-06
-5.92439e-05
-2.32123e-05
-4.65076e-06
1.25334e-05
-2.98026e-06
4.19582e-06
-1.70879e-05
-3.69112e-05
-1.71825e-05
-2.85398e-05
-2.18000e-05
-2.29087e-05
-2.52584e-06
-2.97189e-06
-4.21107e-05
-3.01997e-05
2.03216e-05
5.26139e-05
8.22030e-05
-4.18951e-05
-3.49310e-05
1.93074e-05
-8.01909e-05
2.97089e-05
-6.96411e-05
2.47119e-05
-3.33461e-05
7.50595e-07
-1.96149e-05
6.82148e-06
8.37202e-06
-3.39742e-05
-1.34628e-05
-2.21996e-05
-9.81773e-06
-3.58199e-05
5.95644e-07
4.80364e-05
2.76133e-05
-6.57796e-07
-1.50430e-05
-9.88585e-06
1.18921e-06
5.89782e-05
-1.72505e-05
5.64830e-06
-2.96978e-05
-3.04259e-06
-4.49622e-05
5.53490e-05
1.87967e-05
-3.94082e-05
-3.68320e-06
3.83570e-06
-1.08276e-05
-4.74658e-05
-3.89839e-05
-9.02702e-06
5.70125e-06
-2.83197e-06
1.34344e-05
5.02059e-06
8.92623e-06
-3.56972e-05
-1.02645e-05
1.85632e-05
3.43468e-05
-1.62846e-05
3.24609e-05
-1.01676e-05
2.02156e-05
-1.06244e-05
1.42047e-05
6.61793e-06
-8.17927e-06
1.14519e-05
-2.13275e-05
1.25400e-05
-1.06205e-05
-2.60191e-06
1.45755e-05
-1.50439e-06
-1.39868e-05
-1.25158e-06
7.86683e-06
7.00505e-06
-1.79371e-05
-2.47656e-05
3.59244e-06
-5.18138e-06
3.43760e-06
5.76576e-07
-1.84461e-05
3.26704e-05
-6.62632e-06
3.66434e-05
-2.57433e-05
-2.84763e-05
-1.62146e-06
-9.36232e-06
3.78829e-06
1.57770e-05
-1.58748e-05
2.38282e-07
6.13111e-06
-3.57227e-05
-2.37438e-05
-4.26880e-06
1.30318e-05
-1.99989e-05
-9.81284e-06
-7.86395e-06
-7.54182e-06
-1.94795e-05
-2.10299e-05
-1.63973e-05
1.80706e-05
1.12882e-06
1.98642e-05
-3.89766e-06
-2.07564e-08
1.28143e-05
4.30649e-06
-1.26148e-05
1.86558e-05
8.94291e-06
1.42568e-05
-6.55327e-07
5.02824e-06
-7.96685e-07
-1.26288e-05
1.95276e-05
1.44841e-05
-4.14836e-06
2.01169e-05
1.09542e-05
-6.37585e-06
-2.09740e-06
-1.70720e-05
2.07797e-05
2.96408e-05
-1.52867e-05
8.43302e-06
-1.20124e-05
1.08362e-05
-6.13097e-06
-6.88584e-06
2.12200e-05
2.22630e-05
-1.87148e-05
1.65599e-05
-3.05256e-05
-7.54031e-07
-1.75863e-05
-7.22017e-06
2.18289e-05
-8.09374e-06
1.86385e-05
-9.06797e-06
4.43918e-06
6.69499e-06
-1.73223e-05
8.09670e-06
4.57237e-06
-1.17125e-05
6.50141e-06
-1.74137e-05
1.97445e-06
2.54162e-06
6.76191e-06
-5.64414e-06
1.44462e-05
1.35129e-05
1.05842e-05
7.98314e-07
1.35227e-05
1.59800e-06
-1.48034e-05
5.99572e-06
-4.61320e-06
-2.12827e-06
9.48823e-06
-5.35426e-06
-8.56491e-06
4.28718e-06
-8.05791e-06
-3.57760e-06
6.36926e-06
-1.15576e-05
-2.01292e-06
8.92608e-06
-1.40774e-05
1.43809e-05
2.58293e-06
1.07102e-05
9.18416e-06
-8.47070e-06
-3.12526e-06
-6.19325e-06
1.44988e-05
7.99268e-06
4.40714e-07
1.78999e-05
-2.31533e-05
1.50021e-05
-3.15146e-06
-1.74027e-06
-7.20488e-06
1.56703e-05
9.16519e-06
-1.30208e-06
-6.46449e-06
-7.94707e-06
-1.15021e-05
-6.43278e-07
5.71496e-08
-7.39225e-06
3.44851e-06
3.25142e-06
-3.96393e-06
2.05401e-06
1.20894e-05
-7.46316e-06
8.39708e-06
-1.34247e-05
-3.46013e-06
-2.52521e-06
-6.92006e-06
-5.51575e-06
-1.86838e-06
4.42254e-06
1.14924e-05
-2.07432e-08
4.97873e-06
1.08668e-06
-2.08392e-06
-1.36794e-05
3.24859e-06
-4.02517e-06
3.09643e-06
2.94116e-06
8.36182e-06
-1.50216e-06
-1.61714e-06
-2.76444e-07
-1.73996e-05
1.84176e-06
1.86613e-07
-8.44312e-06
1.43256e-05
3.80999e-06
2.85887e-06
4.78090e-06
-7.48697e-08
4.61471e-06
4.98927e-06
6.23555e-06
-1.30612e-06
-4.34113e-06
1.06145e-05
6.60091e-06
1.61302e-06
4.80665e-06
-2.58018e-06
-5.59848e-07
-6.82225e-06
-2.66617e-06
-1.03124e-05
4.72460e-06
3.18250e-06
-7.09604e-06
-3.97431e-06
7.47628e-06
3.32710e-06
-4.35043e-06
-1.87195e-06
-1.94805e-06
2.65079e-06
1.52040e-06
-8.33572e-06
1.72047e-06
1.88239e-06
-6.10390e-07
1.94099e-06
-5.14687e-07
-1.08179e-05
6.95559e-08
3.65966e-06
-3.62946e-06
-3.64820e-06
3.96498e-06
-3.15249e-06
-1.05289e-06
-3.57130e-06
-7.08930e-06
-4.58465e-06
-3.39271e-06
5.77404e-07
1.67764e-06
-7.80453e-07
-5.10989e-06
1.59459e-06
4.21738e-06
-1.75254e-06
4.43392e-06
2.77636e-06
4.51983e-06
2.28518e-06
-3.92614e-06
7.24269e-08
1.82730e-06
-2.17730e-06
2.71495e-06
2.84181e-06
-4.46981e-06
3.69509e-06
-1.21053e-06
3.16194e-07
-1.59842e-06
1.16749e-07
4.12500e-06
-1.68560e-06
2.01408e-06
-3.21506e-06
-4.21774e-06
-3.47205e-06
5.67711e-06
-1.58655e-06
-1.12684e-06
2.44394e-06
5.10099e-06
-5.42851e-06
4.41033e-07
-7.49421e-06
-6.49909e-07
1.75621e-06
-1.28150e-08
3.35677e-06
1.42157e-06
2.82652e-06
-8.91210e-07
-1.70149e-06
-2.17345e-06
2.79705e-06
1.12507e-06
3.28495e-06
-2.53118e-06
3.08287e-06
-3.13883e-07
-4.75207e-06
-8.78251e-07
-1.91484e-06
-3.47388e-06
-4.59119e-07
1.15607e-06
4.94213e-06
3.79564e-07
-2.30802e-06
-3.37084e-06
3.28197e-06
-3.18137e-07
1.61756e-06
1.84763e-06
-2.60890e-06
-2.67213e-06
-2.75239e-07
-1.85653e-06
4.24523e-07
-4.32161e-07
2.84236e-06
-1.37663e-06
2.26893e-06
1.60918e-06
3.96534e-06
-1.77008e-07
8.28709e-07
7.34896e-07
1.00130e-06
-2.69731e-06
2.05968e-06
2.06718e-06
8.09990e-07
2.14494e-06
-2.64254e-06
-3.02981e-07
-3.16899e-06
1.52394e-06
2.32962e-06
9.78727e-07
1.03027e-06
-1.24613e-06
-3.66853e-06
1.33029e-06
-5.42585e-07
-1.34633e-06
1.06414e-07
-8.53156e-07
-9.64171e-07
3.98023e-06
2.09863e-06
5.57496e-07
-2.77924e-06
1.89807e-06
-2.89406e-07
-2.03875e-07
-5.41246e-07
2.37289e-06
-3.29104e-06
-3.71937e-07
-3.87115e-06
-2.21293e-06
-2.68874e-06
1.39447e-06
1.01422e-06
1.47728e-06
-2.61334e-07
1.07584e-06
1.14373e-06
3.27851e-06
-1.64214e-06
-5.06375e-07
2.82458e-08
-2.09088e-06
-2.32872e-06
-4.53903e-07
1.99643e-06
-1.03792e-07
1.48096e-06
-2.72420e-07
1.89853e-06
3.44471e-06
1.03413e-06
-4.51275e-07
1.24625e-06
-1.39656e-06
6.08042e-07
1.54993e-06
1.64531e-06
1.69324e-06
-1.01957e-06
1.05378e-06
2.95532e-07
1.43233e-06
2.31399e-07
8.20134e-07
2.24847e-07
1.11635e-06
-1.39766e-06
1.90881e-06
-9.47818e-07
7.22516e-07
1.70537e-06
-2.36684e-07
4.86189e-07
3.29893e-07
-3.76113e-07
-9.30092e-07
-1.00638e-06
-1.53097e-06
-1.68345e-08
-9.60605e-07
-9.56338e-07
1.28598e-07
-1.25969e-07
-8.82733e-07
-1.23618e-06
8.86769e-10
2.61305e-08
1.09950e-06
1.89182e-07
-1.61264e-09
-1.50372e-06
1.24155e-06
1.23653e-06
8.40214e-08
-1.33610e-06
1.29241e-06
-4.79235e-07
5.62511e-07
-4.82637e-07
-1.20448e-06
5.38035e-07
-1.18475e-06
9.04905e-07
-1.50584e-07
1.04627e-06
5.08715e-07
-7.37563e-08
-1.97490e-06
5.23190e-07
-1.39865e-06
-2.26133e-06
-7.13123e-07
7.45754e-07
4.89812e-07
-6.11910e-07
1.64882e-07
1.66098e-06
-1.00788e-06
8.49645e-07
-1.87243e-06
9.43224e-07
-7.09782e-07
6.23873e-07
2.61753e-07
1.01607e-06
1.32687e-06
1.00830e-06
-1.25664e-06
-7.34298e-07
-1.62000e-07
3.60743e-07
9.48485e-08
1.50029e-07
4.22177e-07
4.16361e-07
-6.83258e-07
2.25247e-07
-1.29687e-07
4.38587e-07
-7.68247e-07
6.12762e-07
-7.94233e-07
-6.17031e-07
-9.71075e-07
6.54053e-07
-1.11541e-08
-1.18951e-07
-7.29717e-07
2.27956e-06
-3.19098e-07
-1.27414e-06
-1.42079e-06
-1.70782e-07
-1.03054e-06
-1.25148e-06
8.88965e-08
-5.65035e-07
-8.98835e-07
-6.72505e-07
8.03864e-07
4.01794e-07
-9.02149e-07
9.35348e-07
-8.72227e-07
2.54219e-07
-1.68514e-07
-7.42782e-07
8.22519e-07
1.29872e-07
-6.36661e-07
9.52796e-07
-2.86060e-07
-1.07960e-06
-9.85605e-07
-1.95486e-07
-1.08834e-06
-9.60121e-07
-3.53434e-07
-4.82528e-07
-2.81134e-07
1.15116e-06
-1.78576e-06
-1.13959e-06
-9.06660e-07
-9.72531e-08
9.28386e-07
-8.87218e-07
3.17652e-07
-1.25810e-06
-1.65855e-07
-1.49337e-06
8.22723e-08
1.09674e-06
-4.20641e-07
-8.67764e-07
-8.57407e-07
-5.49925e-07
-7.15866e-07
-3.61290e-07
2.52470e-07
1.10576e-06
8.47550e-07
-3.81939e-07
-1.27971e-06
-3.65377e-07
-8.10503e-07
-6.44616e-07
-3.67475e-07
-1.17953e-08
1.26880e-06
8.35407e-07
-4.32262e-07
1.08543e-06
5.91700e-07
8.17022e-07
1.35635e-06
-1.05241e-06
-4.80008e-07
-1.91209e-07
1.61163e-06
-2.65065e-07
2.10344e-07
8.71015e-07
-7.82986e-07
5.62596e-08
-1.74772e-07
1.09074e-06
1.50094e-06
-1.92795e-07
1.30938e-06
-1.48387e-08
1.09392e-06
-8.25875e-07
1.41648e-06
-8.40678e-07
-2.05131e-07
4.69686e-07
1.10992e-06
-8.33262e-07
1.84951e-07
6.78245e-07
7.84141e-07
-3.93217e-07
-5.29468e-07
-3.59944e-07
5.38328e-07
2.38908e-07
-7.15976e-07
-4.69443e-07
-1.84499e-07
-1.02315e-06
1.58587e-08
-8.86900e-07
3.40677e-07
-3.80691e-07
-9.06601e-08
-5.94747e-07
8.29459e-07
-5.51554e-08
6.63225e-07
3.73187e-07
4.10199e-07
3.14238e-07
-8.81772e-07
-4.36195e-07
9.30195e-07
2.39990e-07
-3.39509e-07
5.72466e-07
8.94288e-08
5.96020e-07
1.51246e-07
-1.12502e-06
8.48150e-07
-1.32208e-06
-2.51421e-07
-7.25732e-08
8.77813e-07
-1.07135e-06
6.34092e-07
5.56949e-08
5.75072e-07
3.99912e-08
4.80170e-07
-9.53389e-07
-9.67760e-07
1.75948e-07
7.00128e-07
1.01147e-06
-1.14669e-07
-1.02035e-07
3.21499e-07
3.91704e-08
-6.04554e-07
2.15853e-07
3.77120e-07
5.82081e-07
4.35573e-07
3.81951e-07
3.63633e-07
4.04321e-07
1.24738e-07
-7.88120e-07
-6.72762e-07
1.28119e-06
6.97992e-07
-1.98950e-07
4.07588e-07
1.29764e-08
-2.38470e-07
2.30284e-07
-3.41889e-08
2.78081e-07
-6.79770e-07
-2.78371e-07
1.53009e-07
5.01616e-07
6.24990e-07
1.17969e-07
4.38035e-08
4.76005e-08
6.59280e-08
7.09267e-08
5.39480e-07
3.11653e-07
4.89958e-07
-1.94582e-07
2.42030e-07
3.88749e-07
5.33455e-08
-1.58592e-09
1.88018e-07
1.32102e-07
6.19877e-07
3.06901e-07
2.26546e-07
3.04352e-07
-1.68495e-07
-1.68569e-07
6.60676e-08
2.22173e-07
1.74685e-07
-9.76442e-08
1.49430e-07
1.69253e-07
1.39910e-08
-3.71848e-08
7.85177e-07
2.35928e-07
-9.60862e-09
-2.41843e-07
3.78327e-07
9.00192e-08
-6.25348e-07
5.40463e-07
8.38872e-09
-3.37061e-07
-5.71554e-09
2.06448e-07
3.10870e-07
-1.34603e-07
6.06298e-09
-1.28756e-07
-1.00198e-08
1.28730e-07
2.39862e-07
1.74669e-08
-3.36826e-07
8.23681e-08
-1.18905e-07
1.53749e-07
-1.70882e-08
-4.91281e-08
-1.51390e-07
2.09219e-08
-2.04613e-07
-7.37921e-08
-2.69939e-08
1.25962e-07
-6.28154e-08
-5.14157e-08
-6.52266e-08
-7.74664e-08
-1.05230e-08
4.30468e-08
-1.17794e-07
1.54713e-08
1.46638e-08
2.74889e-08
-1.26481e-07
-3.68539e-08
-1.46510e-08
-2.28367e-08
8.45850e-08
-1.59412e-08
2.39228e-08
-1.04276e-07
-1.29798e-07
-1.01119e-07
-4.14115e-08
-6.32516e-08
1.23773e-08
-3.05874e-08
-2.46893e-09
-3.74244e-08
1.18703e-08
7.29581e-09
1.16278e-09
-1.74763e-08
-6.93788e-09
5.09339e-09
1.67823e-08
-2.75636e-08
9.39201e-09
-8.37869e-09
-1.99065e-08
-1.34606e-08
-9.58105e-09
2.92348e-08
1.66916e-08
-2.23339e-08
-4.78508e-10
1.96764e-08
-2.32010e-08
1.44899e-08
8.19026e-09
8.73921e-09
-1.47864e-08
-1.54357e-08
3.65160e-09
1.22415e-08
-2.36978e-08
-4.81244e-09
9.29440e-10
-9.09984e-09
5.12211e-09
-5.35366e-09
-1.54788e-08
9.71579e-09
1.38317e-08
2.41641e-09
5.96304e-10
-1.51974e-08
-5.39237e-09
-3.82781e-09
-6.81704e-09
-1.44791e-08
3.58031e-10
-5.51288e-09
6.66256e-09
-1.54214e-09
-2.36517e-09
1.10829e-08
4.24853e-09
5.70883e-10
-8.87159e-10
-4.43413e-09
8.02256e-09
4.42872e-10
-3.65306e-09
-1.81876e-09
-5.54530e-03
-8.92652e-02
-1.80102e-01
-3.34865e-01
1.71999e-01
-2.69194e-02
-3.99820e-01
-4.20962e-01
2.52842e-02
2.90847e-01
-4.71960e-01
2.15529e-01
-3.27351e-01
1.13568e-01
-7.09846e-02
-1.45356e-02
-5.06129e-03
-2.13595e-03
-6.55526e-03
1.08590e-02
7.78754e-04
8.40279e-04
2.60106e-04
9.18258e-03
1.23166e-03
-2.80574e-04
2.83638e-03
-2.49650e-03
1.38957e-03
2.44489e-04
1.78828e-05
-1.37877e-03
1.58253e-03
7.51920e-04
1.07482e-04
-1.19715e-03
4.29469e-04
-1.55847e-03
9.83978e-04
-6.86023e-04
-1.53856e-03
-7.61380e-04
-8.48676e-04
5.44435e-04
-5.78624e-04
9.21976e-04
-1.48297e-04
-1.12871e-03
4.56036e-04
7.33678e-04
1.78782e-04
1.68646e-04
-7.05025e-04
-7.97528e-04
6.92806e-04
2.82591e-04
7.49472e-05
-6.37648e-04
1.85862e-04
-4.75981e-04
1.15596e-03
3.12254e-04
3.14974e-04
2.00233e-04
7.85421e-05
3.40138e-05
3.60705e-04
1.08228e-04
2.85782e-05
6.33831e-04
2.22704e-04
3.75319e-05
2.15196e-04
3.58845e-04
2.79755e-04
-1.90247e-04
-5.31708e-05
5.50002e-05
7.30626e-04
-3.22917e-05
-3.30963e-05
3.15500e-04
-4.45505e-04
2.80273e-05
-5.53894e-05
8.49082e-05
-4.73570e-05
2.02583e-04
-2.61879e-04
2.20538e-04
-8.11378e-05
-1.86601e-04
-3.78125e-04
9.22525e-05
-9.36679e-05
1.67468e-04
5.27289e-05
-9.61121e-05
-3.34461e-04
1.88199e-04
-2.13610e-04
-1.10869e-04
-1.81880e-05
-1.36418e-04
-8.25785e-06
1.19038e-04
-5.61792e-05
8.23410e-05
3.65287e-05
-6.68202e-05
1.97254e-05
2.63737e-05
6.06660e-05
-2.80744e-05
-6.47254e-05
9.44001e-05
-5.46163e-05
-1.73252e-04
-1.07811e-04
1.61287e-05
-7.20898e-06
-1.61146e-05
-1.43148e-05
4.98824e-05
-8.36934e-05
1.08601e-04
3.46223e-05
2.86865e-05
-2.49154e-05
1.16245e-04
-7.21162e-05
-7.73975e-05
4.18902e-06
9.59846e-05
-1.27626e-04
1.50830e-04
2.31842e-06
9.11007e-05
-8.21755e-05
-1.97580e-05
2.33156e-05
-4.03044e-05
-1.29022e-04
6.71163e-05
-1.65938e-05
7.30355e-05
-8.36852e-05
2.16092e-05
-7.99070e-05
-4.86821e-05
4.26520e-05
-1.69479e-05
-1.22961e-04
-4.33368e-05
-1.17720e-04
-1.67091e-04
9.62728e-05
-5.90336e-05
-1.80385e-05
8.33695e-05
1.86305e-04
3.93702e-05
4.11194e-05
2.42743e-04
-1.27225e-05
5.34349e-05
7.13525e-05
-1.07935e-04
-2.44715e-04
1.50431e-05
-1.47015e-04
8.34026e-05
4.04276e-05
9.46545e-05
5.83130e-05
8.90387e-05
6.86913e-05
1.26008e-04
2.40674e-05
-6.57784e-05
-3.03898e-05
-3.38881e-05
-6.85888e-05
-7.70265e-06
-3.24474e-05
-1.06236e-05
4.04080e-05
-1.07881e-04
-6.52983e-05
5.41682e-05
1.10102e-05
5.66332e-05
2.18590e-04
9.64232e-05
-7.34056e-05
-4.94358e-06
9.20992e-05
8.68754e-05
-4.21340e-05
8.75070e-05
7.61375e-05
8.02907e-05
-7.12432e-05
1.98858e-05
1.42646e-05
9.28886e-06
1.45811e-04
-3.39571e-05
-2.74980e-05
6.27811e-05
6.72235e-05
-3.11158e-05
-2.81563e-05
-2.24614e-05
-5.02944e-05
1.92598e-05
-3.52396e-05
-5.35453e-05
2.54804e-05
1.28111e-04
-1.14700e-04
3.97555e-05
1.18516e-04
-8.55252e-05
1.83041e-05
-5.89370e-05
1.94618e-05
-2.76140e-05
-7.27929e-05
5.94023e-05
7.60734e-05
-3.19998e-05
5.44435e-05
-3.49978e-05
2.47967e-05
5.28166e-05
3.58727e-05
6.56305e-05
1.86787e-05
1.02364e-05
3.53403e-05
-2.05762e-05
5.62198e-05
4.58441e-05
-1.09241e-04
1.49070e-05
-2.28846e-05
3.82997e-05
-5.35743e-05
-2.85391e-05
-6.66796e-05
3.74288e-05
-6.49329e-05
2.32277e-05
-9.02681e-07
-1.08922e-05
4.98414e-05
2.20734e-05
5.67625e-05
4.09134e-05
5.71152e-05
-2.63431e-05
-1.20898e-05
-1.28749e-05
6.66386e-05
-7.07858e-05
3.56042e-05
-2.82124e-05
-1.59375e-04
-4.35102e-05
1.11363e-04
4.21158e-05
-3.10679e-05
4.48884e-06
-5.72722e-06
3.84748e-05
-4.36473e-05
-2.27837e-05
-1.77495e-05
1.13999e-04
-2.75332e-05
-1.57924e-05
-5.70423e-05
-3.13382e-05
-2.11280e-05
-3.93384e-05
5.27742e-05
3.48529e-05
3.04672e-05
9.61509e-06
-5.76614e-05
-1.06888e-05
-3.75387e-06
-7.46715e-05
4.36947e-05
2.92800e-05
-7.24542e-06
-2.04669e-05
-1.62957e-05
3.97629e-05
-1.34222e-05
1.60833e-05
-2.32191e-05
-8.36201e-06
-2.32254e-05
2.06909e-05
4.37283e-05
-2.98264e-05
-2.18061e-07
1.18112e-05
-2.40416e-05
3.57475e-06
1.99052e-05
-4.21521e-05
6.66710e-06
-1.22327e-06
-1.39173e-05
-2.13249e-05
-3.97215e-05
2.55378e-05
4.44734e-05
6.82040e-06
-1.05829e-05
2.98670e-05
1.16154e-06
3.71649e-06
-5.12014e-05
1.98432e-05
6.75540e-05
-1.98588e-05
-3.22960e-06
-1.31728e-06
1.17753e-05
2.97984e-05
2.31372e-05
3.49245e-05
-4.45098e-06
-3.90324e-05
-6.96539e-07
2.18192e-05
-1.82454e-06
4.71023e-05
-1.28224e-05
9.12639e-06
-1.38431e-05
2.56013e-05
7.36558e-05
5.70368e-06
1.40884e-05
6.89105e-06
-1.75575e-05
-2.11011e-05
-8.20367e-06
-1.34657e-05
6.11154e-06
4.98420e-06
3.84812e-05
-3.10225e-05
-6.75100e-06
4.93720e-05
4.43228e-05
2.09109e-05
-3.75976e-05
-3.18967e-07
3.19908e-05
2.46944e-05
4.02594e-06
6.29755e-06
2.15260e-06
-1.75939e-05
1.58561e-05
1.18665e-05
2.38848e-05
5.02642e-06
-1.24014e-05
-1.13238e-05
2.23295e-05
-2.11114e-05
1.87512e-05
1.59474e-05
2.10189e-06
-3.51253e-05
8.62141e-06
2.44734e-05
1.24569e-05
1.07237e-05
-1.72869e-05
1.43938e-05
-2.40694e-05
1.87978e-05
1.96444e-05
-2.95467e-05
5.47900e-06
1.44444e-05
7.68964e-06
2.68105e-05
1.47980e-05
-7.56268e-06
1.02523e-05
-5.24634e-06
-1.32253e-05
2.70566e-05
-9.75911e-06
-2.11521e-05
4.54676e-05
4.44191e-06
1.96628e-05
3.49344e-05
4.02138e-05
2.67253e-05
-3.00016e-06
-1.17363e-05
-2.91797e-05
7.45967e-06
8.73220e-06
-7.56437e-06
1.10023e-05
-3.78263e-06
2.41183e-05
1.62687e-06
1.49358e-05
2.32697e-05
7.46242e-06
-1.86973e-06
-1.70678e-05
-5.97270e-06
1.01410e-05
1.25385e-05
1.21419e-05
-1.26975e-05
1.01885e-05
-2.97618e-05
-5.73653e-06
8.11093e-07
4.77953e-06
-1.52526e-06
1.24902e-05
-1.32785e-05
-1.38926e-05
1.88650e-05
1.55675e-05
-3.22762e-05
-2.81384e-06
2.45102e-06
-9.72208e-06
2.94646e-06
6.39295e-06
1.06950e-05
-1.71386e-06
9.51755e-06
1.49458e-05
-6.68238e-06
-6.78811e-06
2.15444e-05
4.22166e-06
-2.54714e-05
1.51968e-05
-2.01602e-05
-1.51650e-06
-6.08217e-06
6.06495e-06
-2.63411e-06
5.07554e-06
5.71915e-06
-3.65069e-06
1.35625e-06
1.05846e-05
8.58652e-06
6.10037e-06
-7.43695e-06
-4.50399e-06
1.22331e-05
-1.33155e-05
7.37540e-06
1.28064e-05
-2.60563e-06
6.69234e-06
-9.49952e-06
1.26288e-05
2.05072e-06
-1.83330e-06
-1.01042e-05
1.18243e-05
-5.19949e-06
8.41112e-06
8.86868e-06
-8.58063e-06
4.99909e-07
1.25383e-05
-6.59286e-06
-5.04694e-06
7.08252e-06
1.41529e-05
8.27122e-06
-1.33574e-05
4.10841e-06
-6.82006e-07
-1.74022e-07
3.76128e-08
-8.30388e-06
1.02855e-05
-1.29135e-06
-9.19305e-06
1.29588e-05
-1.11496e-05
2.56626e-05
2.11156e-06
3.64993e-05
-4.84369e-06
2.73744e-06
-8.79806e-06
1.26133e-05
-1.68563e-05
3.37493e-05
-1.01725e-05
2.06948e-05
1.22556e-05
-3.36971e-06
-2.21001e-05
-1.16825e-06
-4.71213e-06
-9.98164e-06
1.44832e-05
6.35969e-06
-3.93622e-06
-2.75593e-06
-5.46810e-06
-8.67138e-06
1.27064e-05
2.24323e-06
6.62721e-06
1.40202e-05
-6.87870e-06
5.23965e-06
8.00073e-06
-1.15267e-05
-9.72244e-06
-2.00249e-05
-1.75268e-05
3.68221e-06
1.09558e-05
3.22160e-06
5.68394e-06
-4.28793e-07
-2.60757e-06
-2.12035e-06
-8.83654e-06
-5.32929e-06
7.44839e-06
5.81392e-06
-2.16425e-06
-7.18854e-06
6.33430e-06
1.50128e-06
8.76260e-06
-1.34349e-06
2.68112e-06
1.97132e-06
-6.51159e-06
-5.38736e-06
-4.04792e-06
4.14958e-06
3.10831e-06
-7.01964e-07
-4.67381e-06
3.23799e-06
3.30609e-06
2.42248e-08
-6.71217e-06
-1.99212e-06
5.20288e-08
-5.12613e-07
-5.40054e-07
7.06606e-06
-5.04005e-07
3.63259e-06
-4.93150e-07
-2.88970e-06
-8.07258e-07
-4.01450e-06
-1.17288e-05
-5.05431e-06
-8.94228e-06
2.67170e-06
-3.32359e-06
2.33826e-06
7.33196e-07
-1.94491e-06
9.92927e-08
1.01427e-05
2.92217e-06
1.96239e-07
1.03211e-05
7.66513e-06
-2.08941e-07
-5.57178e-06
-3.26819e-06
1.22295e-06
-5.60737e-06
6.27560e-06
-1.94339e-06
3.72332e-06
4.18707e-06
5.86508e-06
3.50009e-06
3.81085e-06
5.29343e-06
-1.87213e-06
3.92583e-06
2.99179e-06
1.21719e-06
-4.59825e-06
-7.97320e-06
-1.84490e-06
-3.27460e-06
-3.09723e-06
6.63474e-07
-3.28620e-06
-8.42678e-06
-8.51338e-06
-4.66075e-06
-8.27075e-07
4.11165e-06
-1.41701e-06
-4.10183e-06
4.36839e-06
-4.39404e-06
-4.63768e-06
-4.17617e-06
6.58732e-07
5.49062e-07
1.15733e-06
2.86394e-06
-2.09144e-06
2.24208e-06
-1.09864e-06
-1.57485e-06
1.34838e-06
1.52128e-06
-7.92637e-07
3.40012e-06
-1.08345e-06
3.52478e-06
-6.50033e-06
3.48991e-06
-2.75141e-06
2.13908e-06
9.80678e-07
2.20985e-07
1.04033e-07
-2.77645e-06
4.00002e-08
1.00361e-06
3.99836e-06
-1.55573e-06
-1.53651e-06
-3.19350e-07
1.50899e-06
-7.94607e-06
1.23244e-06
-1.71980e-06
1.43510e-07
9.12504e-07
-1.98778e-06
4.66906e-06
-2.53756e-06
1.26719e-06
-5.07098e-07
8.86986e-07
6.94701e-07
2.45253e-06
-1.63605e-06
2.19465e-06
1.72165e-06
-3.17108e-06
-1.62613e-06
-2.56113e-06
2.26841e-06
-2.29377e-06
-1.68861e-06
4.45952e-06
-4.19493e-06
-2.26331e-06
-5.41020e-07
3.55030e-06
-1.30214e-06
3.22673e-06
-2.71070e-06
-1.20513e-06
-1.33770e-06
1.26806e-06
1.17105e-06
-6.80876e-07
-7.49323e-06
-1.25444e-06
1.19505e-06
-2.54315e-06
6.36502e-07
-5.57697e-07
-2.92609e-06
-1.20002e-06
-9.57666e-07
1.25055e-06
-1.81321e-06
4.38144e-06
1.69692e-06
1.81885e-06
-1.44359e-06
-4.20044e-06
-6.17491e-08
4.15825e-06
-1.62173e-06
1.95883e-06
-6.00258e-07
1.76277e-06
-3.79458e-08
3.92441e-07
2.29489e-07
9.39860e-07
4.58847e-06
2.85259e-06
2.80932e-06
-1.00081e-06
1.06902e-06
1.06216e-06
2.78862e-06
1.35893e-06
5.83893e-07
-1.53066e-06
-6.74246e-07
-3.24186e-06
-5.58724e-07
1.38457e-06
-2.97990e-06
-1.01248e-06
7.94287e-07
4.34384e-06
3.01065e-06
3.23143e-06
-1.61102e-07
-3.45967e-07
-1.29955e-06
2.02932e-06
-1.28052e-06
-7.20782e-07
3.58770e-06
1.79581e-06
1.22477e-06
-2.51192e-07
5.98638e-07
-2.74766e-06
3.18134e-06
-3.72161e-07
-5.57972e-08
-6.59225e-07
-1.77702e-06
2.29396e-06
4.34146e-07
-1.16947e-07
1.55546e-06
-2.99798e-07
1.45287e-06
2.85922e-06
-1.27414e-06
1.40259e-07
1.99988e-06
1.56242e-06
6.78845e-08
1.67966e-06
-1.45924e-06
-3.73412e-07
-1.51363e-08
-5.10895e-07
-1.98458e-06
-5.85943e-07
-7.21748e-07
-3.91782e-07
7.31091e-07
-1.14790e-06
1.34055e-08
2.94153e-07
1.42331e-06
-4.02691e-07
9.27767e-07
-1.10823e-06
-9.86608e-07
2.50603e-06
-2.24855e-06
1.05069e-06
-1.64391e-06
-1.96240e-06
-1.58821e-06
-1.43495e-06
-5.92331e-07
-1.26479e-06
1.73221e-06
-1.92477e-06
6.12003e-07
2.06291e-06
-5.67062e-07
-1.08084e-06
2.41004e-06
-4.95876e-07
-1.13812e-06
-1.81851e-06
1.56759e-06
2.13655e-07
-1.29916e-07
-9.17522e-07
-1.88322e-06
1.39620e-06
1.43243e-06
6.31355e-08
1.57968e-06
-1.13790e-06
1.05922e-06
-1.86071e-06
-6.23922e-07
-1.76889e-07
1.77544e-06
-2.18412e-06
6.86748e-08
3.87367e-07
-1.24349e-06
-2.48797e-06
-2.56215e-06
-1.17164e-08
1.73651e-06
-7.33321e-07
-3.88440e-08
-3.09466e-07
-9.56943e-08
-1.04470e-07
-1.66245e-06
3.03185e-07
2.20449e-06
-1.90052e-06
3.06124e-06
-1.68551e-08
-5.09490e-07
-9.36082e-07
4.14270e-07
-1.83914e-06
-8.32987e-07
-1.92266e-06
3.55806e-07
-2.22209e-06
7.38985e-07
5.91136e-07
-7.55257e-07
-1.65022e-06
-1.64768e-06
1.49366e-06
-1.24556e-06
-1.03132e-06
-2.53555e-07
9.77454e-07
6.82955e-07
-2.23984e-06
-1.83150e-06
5.63336e-08
-9.52639e-07
3.73680e-07
-7.86599e-08
-8.10713e-07
1.36264e-07
1.25608e-06
-2.70091e-06
-2.80533e-07
5.71516e-08
-3.34143e-07
-3.21010e-07
1.88799e-07
6.05502e-07
1.20682e-06
-8.77895e-07
2.03115e-06
1.51174e-06
-2.44741e-07
-4.98538e-08
-1.79040e-07
-9.14204e-07
-1.31426e-07
-7.30336e-07
3.05398e-07
-5.68725e-07
1.54536e-07
-1.07208e-07
-1.46475e-06
-1.58968e-08
-7.63194e-07
-5.69954e-07
-6.14770e-07
-8.35410e-07
4.78485e-09
-3.12551e-07
-7.02258e-07
3.26906e-07
2.34088e-07
-6.19335e-07
3.80221e-07
2.69546e-07
4.31425e-07
-3.46776e-07
1.99378e-07
-8.36568e-07
5.45276e-08
-3.61794e-07
1.51559e-07
3.16055e-07
-7.70695e-07
-4.25890e-07
-1.28455e-07
3.74333e-07
-2.91211e-07
7.88335e-07
4.61329e-07
-2.58730e-07
1.84749e-07
1.69163e-07
-3.70014e-09
-1.59036e-07
6.49339e-08
-2.95488e-07
-1.14680e-07
2.61747e-07
-3.39616e-07
-5.78536e-07
-4.48054e-07
-2.21520e-07
3.27556e-07
9.12450e-08
3.90332e-07
-3.78536e-07
4.19138e-09
8.57240e-08
2.26016e-07
-6.41477e-08
2.84366e-07
-2.33753e-09
-9.36129e-08
-1.72721e-07
2.00540e-07
4.69712e-08
9.63534e-08
1.69433e-07
-6.86817e-08
1.56075e-07
-3.88204e-09
8.65500e-08
3.78905e-08
2.42456e-08
1.29395e-07
6.51978e-08
4.84579e-08
4.06617e-08
-6.22674e-08
5.52993e-08
1.85353e-08
7.39487e-08
1.63061e-07
1.10002e-07
2.50810e-08
9.32037e-08
-9.02472e-08
3.17640e-08
-1.59965e-08
3.63876e-08
3.09022e-08
2.13736e-09
-1.63453e-08
5.16742e-08
1.47429e-08
-1.32839e-08
9.67003e-09
1.97831e-10
-3.39999e-08
4.20448e-08
2.81427e-08
5.60482e-08
3.43107e-08
-4.23934e-08
-6.11941e-08
2.25164e-08
-3.73400e-10
-4.76478e-09
3.24061e-08
-1.99633e-08
-1.64866e-08
4.95481e-09
2.40057e-09
4.94750e-08
5.28098e-09
-3.56520e-09
2.66708e-08
-1.02574e-08
-7.73294e-09
2.86553e-08
-1.78717e-08
9.87151e-09
2.04059e-08
-3.14133e-08
-2.01243e-08
-2.48503e-09
1.44766e-08
3.68654e-09
-4.32528e-10
-5.01882e-09
1.21462e-08
1.75704e-08
-5.63257e-09
4.48716e-09
2.35182e-08
2.44770e-09
2.39707e-10
1.10916e-09
-1.64412e-08
-1.94246e-09
-2.60617e-09
1.21459e-08
-6.07890e-09
4.18897e-09
-1.30179e-09
3.43557e-09
-4.37416e-03
-5.03979e-02
-9.89884e-02
-2.34377e-01
1.08482e-02
1.25944e-03
-2.16397e-01
-5.56874e-01
7.78130e-03
-8.34789e-02
2.47123e-01
-1.85768e-01
6.23977e-01
-2.19920e-01
1.71899e-01
3.06494e-02
2.68613e-02
-1.33694e-02
4.37628e-02
-1.88796e-02
5.14242e-03
-1.11991e-02
2.34011e-03
-3.47350e-02
1.50324e-03
1.01231e-03
-1.65515e-05
8.11569e-03
-3.87253e-03
4.12287e-03
3.67421e-03
-5.14810e-04
-1.26269e-03
2.64485e-03
-5.30750e-04
7.06052e-03
-1.34631e-04
1.29324e-03
3.36889e-03
-6.49044e-04
7.01670e-03
1.65576e-03
2.91325e-03
-6.59598e-04
4.25767e-03
-2.06543e-03
-1.29518e-03
8.13172e-04
1.62340e-03
-7.91691e-04
4.04543e-04
4.09674e-04
-6.18632e-04
1.34930e-03
-8.03045e-04
-4.60449e-04
-9.80755e-04
2.60588e-03
-3.26194e-04
-1.27386e-04
2.61619e-03
3.78525e-04
3.16980e-04
5.26736e-04
-3.98710e-04
1.87658e-04
-1.09743e-03
3.27953e-04
-7.61128e-05
1.22633e-04
-2.25464e-04
-2.83231e-04
-2.64580e-04
2.94166e-04
3.52294e-04
-5.71835e-05
1.88787e-04
1.13942e-04
-5.80975e-04
-4.77211e-05
1.00722e-04
-4.60615e-04
1.31118e-03
-6.85049e-04
-9.69957e-04
-3.15485e-04
-1.32216e-04
-5.53337e-05
9.41276e-04
-3.71625e-04
-4.75266e-04
8.91828e-05
7.75207e-04
1.51699e-04
-1.80810e-04
-2.87936e-04
2.35502e-05
2.87514e-04
-8.15440e-04
-1.63996e-04
-2.45716e-04
6.87080e-05
-1.38511e-04
8.36743e-05
-3.62910e-05
7.45730e-05
4.29877e-04
-1.30974e-05
-1.00926e-04
3.78767e-04
-7.47373e-05
-3.35246e-04
-2.78619e-04
-1.52344e-04
3.73482e-04
-3.75332e-05
3.88347e-04
2.94685e-04
2.80524e-04
-1.89088e-04
2.10108e-04
5.76819e-05
1.32127e-04
1.31404e-04
1.25825e-04
-2.12033e-04
-1.43316e-04
1.18282e-04
1.69092e-04
-1.99953e-04
-5.81403e-05
2.92079e-04
5.11318e-05
-1.10360e-04
1.57784e-04
2.01452e-04
1.41277e-04
-2.73180e-04
1.67383e-04
-9.61797e-05
8.92739e-05
-2.51836e-04
9.90918e-05
-2.34580e-04
1.84189e-05
-2.72789e-05
3.07010e-05
-4.91218e-05
1.24867e-04
-1.31681e-04
-9.76406e-05
4.71786e-05
-1.77833e-05
-2.20942e-05
3.25447e-05
2.72631e-04
-2.35930e-04
3.68857e-05
5.95154e-05
-9.85391e-05
-7.42547e-05
-1.72564e-04
-1.65937e-04
-4.22848e-04
1.37302e-04
-3.57593e-08
3.97142e-05
2.01849e-04
1.88704e-04
-9.29642e-05
5.67140e-05
-4.09224e-05
-5.90294e-05
-1.16166e-05
-3.11930e-04
8.00797e-05
-2.14405e-05
-2.80092e-04
1.83285e-04
-1.13907e-04
1.31156e-04
3.01239e-04
1.69100e-04
2.57492e-04
-2.38728e-04
1.79369e-05
5.91873e-06
-2.34122e-06
3.49600e-05
-2.39978e-04
3.37087e-05
1.26903e-04
-1.97730e-04
-1.14968e-04
1.51964e-04
2.47252e-04
-2.54446e-04
2.26912e-05
-1.18704e-04
5.84335e-05
-1.92052e-04
-4.16818e-05
-2.73948e-05
-3.11500e-04
-1.12576e-04
4.86853e-05
-4.49680e-04
1.06251e-04
-7.46116e-05
-3.44471e-05
1.07585e-04
3.01826e-05
-2.45313e-05
-2.67941e-04
3.40731e-05
1.18547e-04
1.03824e-04
1.69831e-04
-7.18204e-05
3.51087e-05
-8.96589e-05
2.73591e-04
-1.65548e-04
-2.05123e-05
-1.30263e-04
6.04976e-05
-9.96004e-05
-1.00953e-04
-1.46880e-04
-9.63700e-05
-3.06125e-05
6.60050e-05
-4.58520e-05
-3.73034e-05
-1.45364e-04
9.67650e-05
3.23262e-05
-1.17486e-05
-2.06653e-04
4.66798e-06
-5.96693e-05
-1.85911e-05
-6.39220e-05
-3.85109e-05
2.46177e-04
-1.24040e-05
7.77418e-06
2.50754e-06
2.62565e-05
5.30688e-05
9.70094e-05
-3.03037e-05
2.70543e-05
1.78726e-04
1.07991e-04
2.03792e-04
-8.54482e-05
3.90659e-06
2.10368e-04
-1.84640e-05
-4.38346e-05
1.00774e-04
1.22787e-04
-1.61735e-04
-1.65513e-04
-4.93955e-05
-7.16958e-05
-6.76614e-05
3.05042e-05
3.88790e-05
-1.40535e-04
-8.62407e-05
3.92420e-05
5.89674e-05
-5.59963e-05
-1.17990e-04
9.44307e-05
3.39730e-06
-7.33926e-05
-1.30322e-04
-6.27571e-05
-2.40781e-07
2.03576e-04
5.43604e-05
-9.40397e-05
1.12673e-04
-1.05817e-04
-8.87780e-05
-4.84423e-05
-5.19423e-05
4.57334e-05
4.09270e-05
2.25019e-05
7.19194e-05
-1.50857e-04
-1.22741e-05
1.54669e-05
1.72530e-04
1.29052e-04
-6.20452e-06
4.66209e-05
1.58000e-05
6.91948e-05
7.99261e-05
1.39732e-04
8.98666e-06
5.79531e-05
9.30349e-05
7.53389e-05
-1.75442e-05
5.76963e-05
-5.64281e-06
1.68630e-04
1.35799e-04
1.33565e-04
-8.68202e-05
2.23535e-05
1.35737e-04
-8.64943e-06
9.48330e-05
-1.38941e-04
-9.26458e-05
7.01201e-05
-7.08048e-05
2.32280e-05
-8.69360e-05
1.28081e-04
-8.40246e-05
-5.22376e-05
-1.97731e-05
-5.91022e-05
-1.25362e-04
4.00995e-05
2.50427e-06
-1.10439e-04
-7.38435e-05
4.86384e-05
2.91240e-05
-5.44666e-05
7.80629e-05
2.38894e-05
-1.43588e-06
2.78305e-05
4.77887e-05
2.61681e-06
-2.35041e-05
-3.84125e-05
3.31390e-06
1.16848e-05
-5.62898e-05
4.23142e-05
8.86262e-05
1.51015e-05
9.37658e-05
4.74654e-06
4.33378e-05
9.34357e-05
7.84601e-05
5.43200e-05
-1.84741e-05
-2.54887e-05
-5.49220e-05
1.04954e-04
-2.80972e-05
-5.90858e-05
-3.44269e-05
5.06414e-06
4.76027e-05
2.52907e-05
8.25433e-05
-4.77834e-05
-2.30194e-05
2.85645e-06
-9.51729e-05
-1.48533e-05
3.65034e-05
-2.67320e-05
5.44643e-05
-2.30361e-05
-8.20945e-06
1.64553e-05
6.96666e-05
-1.42355e-05
-6.78313e-05
4.13477e-05
-5.45985e-05
-8.15247e-06
4.18586e-05
3.44297e-05
-5.52327e-06
-6.42706e-07
2.36045e-05
-1.78647e-05
-5.93723e-05
-4.48950e-05
-3.01719e-05
-8.10736e-07
-1.48132e-05
-5.92533e-05
-4.67056e-05
-4.60943e-06
2.69090e-05
6.15888e-06
5.71580e-05
-8.92562e-05
3.11648e-07
-5.05523e-05
2.07733e-05
-4.68543e-06
-1.79957e-06
-3.73262e-05
-5.00401e-05
3.28790e-05
-6.17668e-05
3.08971e-05
5.15193e-05
-1.19623e-05
5.53426e-05
-7.06481e-06
9.94122e-06
-2.64129e-05
-2.04306e-05
-2.77955e-05
2.86611e-05
-3.60146e-05
-4.55918e-05
-1.94574e-05
-1.32272e-05
4.81802e-06
-1.23352e-05
-1.69235e-05
3.05812e-07
1.59428e-06
-1.22097e-05
-4.74655e-05
-1.56143e-05
-3.35493e-05
1.56145e-05
-6.22593e-06
6.71469e-06
7.28362e-06
2.05853e-05
-4.26228e-05
7.21002e-06
-7.92394e-07
-6.48555e-06
-1.40428e-05
1.23395e-05
-1.39413e-05
-3.50620e-05
-4.80560e-05
-1.08499e-05
-2.40390e-05
-1.30992e-05
2.73136e-06
4.60039e-05
-3.81031e-05
3.95824e-05
-5.83182e-05
1.24687e-05
-8.60261e-06
3.15870e-06
-2.33887e-05
-1.01083e-05
8.44049e-06
2.38917e-05
1.33486e-05
-2.15560e-05
4.33394e-06
2.41669e-05
-1.47676e-05
7.82315e-06
3.76581e-05
3.28957e-07
5.15126e-07
4.89511e-06
-1.01575e-05
5.63275e-06
-1.56220e-05
3.65487e-05
-4.25706e-06
5.48342e-05
-1.61610e-05
1.31313e-05
2.10690e-05
2.41206e-06
1.65496e-05
4.98346e-06
-5.35802e-06
3.76030e-06
-3.41764e-05
3.80424e-06
-1.62743e-05
-2.27235e-05
-9.86358e-06
2.69412e-06
3.79975e-06
1.83423e-06
-3.09534e-05
1.27081e-06
-1.24600e-05
3.27399e-05
1.19540e-07
1.13784e-05
2.08784e-05
-4.05362e-05
-2.76447e-06
-3.00156e-06
-1.06331e-05
2.07130e-05
4.89041e-06
-6.09685e-06
-1.76700e-05
-2.21496e-05
1.02435e-05
-1.91850e-05
4.37514e-06
-1.44327e-06
8.89808e-06
2.87212e-05
1.20572e-05
3.12828e-05
-1.13442e-05
2.71097e-06
2.14750e-06
1.00716e-05
2.72991e-05
1.51348e-05
-1.18594e-05
1.83953e-05
-1.43277e-06
-2.95819e-06
-1.13818e-05
-4.40453e-05
-9.44113e-07
1.75331e-05
2.84997e-05
1.47946e-05
-2.99646e-06
-8.16190e-06
-2.30568e-05
7.06934e-06
-1.87301e-06
3.42861e-05
-3.03512e-05
-9.84620e-06
-2.09286e-05
5.95610e-06
-2.04729e-05
-1.44049e-05
7.24317e-06
8.17970e-06
-9.56950e-06
1.41533e-05
-3.94447e-06
8.33025e-06
-6.64827e-06
1.27706e-05
2.03696e-05
-9.50493e-06
4.87858e-06
-7.50201e-07
-3.18317e-06
-3.43592e-06
1.26571e-05
4.64368e-06
-9.89714e-07
-2.73627e-05
2.05931e-05
5.83516e-06
6.15524e-06
-2.83327e-06
9.77680e-06
2.09771e-07
4.18619e-06
1.03095e-05
1.63087e-05
-9.88584e-06
1.37780e-05
-4.64976e-06
2.55178e-07
8.10696e-06
2.65697e-06
-1.47738e-05
1.45132e-05
1.04769e-05
8.69983e-06
4.07933e-06
1.40807e-05
-1.92734e-05
2.55750e-06
1.09154e-05
-1.14351e-05
-1.86654e-05
5.18140e-06
9.33683e-06
1.97310e-05
-1.45631e-06
1.31333e-05
2.76139e-06
1.24115e-05
6.22676e-06
-1.88916e-05
7.80337e-06
-1.70848e-05
-4.71891e-06
2.77754e-06
1.15339e-05
-8.42799e-06
-1.07841e-05
-9.17505e-06
-5.49427e-06
1.10991e-05
-1.68799e-06
-2.95599e-06
3.28533e-07
2.25079e-06
3.14039e-06
1.43837e-05
1.26633e-05
5.16839e-06
7.15814e-06
-8.17568e-06
8.45885e-06
1.47020e-05
-1.48980e-05
9.07468e-07
1.41908e-05
-1.89567e-06
-7.74406e-07
-5.09882e-06
-1.22834e-05
2.13132e-06
1.93724e-06
2.35313e-06
1.02944e-06
7.67573e-06
4.98077e-06
8.39533e-07
-4.81333e-06
-2.84598e-06
-5.64363e-06
4.63585e-06
3.58085e-06
-6.11504e-06
1.02016e-05
9.86059e-06
8.63022e-06
-4.92824e-06
-7.73677e-06
4.37980e-06
-6.97741e-06
5.38528e-06
-1.69306e-06
1.81626e-06
5.88458e-06
-4.00598e-07
3.32754e-06
1.47877e-05
-9.86642e-06
3.99660e-06
9.72072e-07
-1.46709e-06
4.71533e-06
-1.29522e-05
-2.19423e-06
-1.10858e-06
5.55152e-07
5.15513e-08
1.76788e-06
3.89868e-06
1.90684e-06
-3.09250e-06
-7.27289e-06
7.91853e-08
-3.78059e-06
1.12262e-05
2.40168e-07
-2.92350e-06
2.60994e-06
-9.92664e-06
7.72626e-06
-7.44989e-07
-2.01447e-06
-1.45303e-05
-6.08932e-06
-3.76564e-06
-4.18902e-06
-7.64958e-06
6.36024e-06
-3.68748e-06
-8.75294e-06
4.11572e-06
-1.47711e-06
5.32406e-06
-9.84611e-07
-2.01679e-06
-4.68701e-06
-2.74180e-06
1.01415e-06
4.33714e-06
1.29901e-08
-6.76767e-06
-5.33795e-06
-9.35729e-06
4.77497e-06
-8.94442e-06
1.51725e-06
9.16835e-06
-2.30083e-06
4.02582e-06
8.04337e-06
-1.50358e-06
2.64268e-06
-6.91504e-06
1.75131e-07
4.94087e-06
2.14223e-06
6.03480e-06
-1.04189e-06
-2.94170e-06
-5.49060e-06
4.46787e-06
-6.36513e-06
-3.89455e-06
-2.54921e-06
2.99535e-06
9.57291e-07
-5.65017e-07
6.62717e-06
2.92424e-06
3.79971e-06
-2.45508e-06
5.73889e-06
3.98793e-07
-9.14208e-06
-7.67832e-06
-6.81871e-06
-8.96368e-06
5.55066e-06
5.64485e-06
7.36614e-06
-2.47749e-06
6.94764e-06
-3.31983e-06
1.98728e-06
7.25490e-06
2.87839e-06
-1.97336e-06
1.66579e-06
7.86347e-06
-7.22732e-06
1.92429e-06
-4.45510e-06
8.18119e-06
5.62113e-06
-8.93572e-07
4.68353e-06
-7.16495e-06
3.66812e-06
-3.04673e-06
-3.30438e-06
-6.87132e-06
9.93398e-06
1.11312e-07
6.78998e-07
-2.68441e-06
-3.13496e-06
-1.45331e-06
3.08918e-06
3.87995e-07
-8.07882e-06
1.66666e-06
5.60855e-06
-1.05329e-06
4.17884e-06
2.08650e-06
6.10175e-07
-3.48138e-06
-4.81941e-06
-5.48308e-06
-3.16949e-06
7.72789e-07
-4.53885e-06
2.98981e-06
-6.91679e-07
-5.74043e-06
-2.23936e-06
-2.97908e-06
2.43283e-06
7.11022e-06
8.46477e-07
2.30337e-06
9.13209e-07
3.30824e-06
-5.05701e-06
2.45676e-06
-2.92867e-06
-3.87541e-06
5.36415e-06
3.97187e-06
-5.48002e-07
-5.87475e-08
-1.91736e-06
-3.50736e-07
1.44700e-06
-1.73466e-06
-2.74946e-07
4.09001e-06
4.30817e-06
-3.83542e-07
-2.52568e-06
2.66390e-06
-3.40712e-06
3.50655e-07
-6.82979e-07
2.12165e-06
-1.09329e-06
-1.58762e-06
-6.19291e-06
3.63584e-06
-3.57101e-06
-4.87779e-07
-1.72028e-06
2.18678e-06
4.17178e-06
-3.53291e-06
-3.60061e-06
2.17437e-06
2.08263e-06
-3.79662e-06
-1.98762e-06
2.55506e-06
6.86886e-06
-2.48539e-06
-5.45664e-06
3.89753e-06
-4.43144e-06
-1.76868e-06
-1.57919e-06
2.72787e-06
-4.32959e-06
2.50374e-06
7.92421e-07
3.47158e-06
-6.38553e-07
2.75739e-06
-7.36433e-07
-7.05889e-07
4.16220e-06
2.91516e-06
2.38481e-06
-6.66828e-07
3.62216e-06
2.09425e-06
-1.90662e-06
-3.67704e-06
1.19269e-06
4.56376e-06
1.03770e-06
1.65376e-06
3.28395e-06
-2.17333e-06
-5.79792e-07
1.25328e-06
-3.44208e-06
-2.85081e-06
6.08272e-06
3.85003e-06
-2.71703e-06
5.69326e-07
1.52512e-06
-7.32172e-06
-3.50417e-06
-2.57133e-06
5.31939e-06
1.55779e-09
-4.09338e-06
1.17162e-06
-1.77507e-06
-1.64198e-06
-2.96953e-06
8.76229e-07
2.04877e-06
-1.13566e-06
-3.85928e-06
1.22642e-06
2.71414e-06
2.02005e-06
9.57780e-07
1.56038e-06
1.41714e-06
-1.01681e-06
-1.94391e-06
3.32981e-07
2.06669e-06
2.33752e-06
-7.82383e-07
-8.58885e-07
-7.42458e-08
-8.90410e-09
7.46326e-07
-2.35051e-06
-2.73554e-06
-1.22678e-06
9.21239e-07
2.34872e-07
4.85796e-07
-7.90868e-07
-5.30271e-07
-9.24423e-07
4.71387e-08
5.09519e-07
-5.83915e-07
1.00519e-06
3.17218e-07
1.14965e-06
9.61249e-07
-5.27208e-07
-8.13512e-07
1.31361e-06
9.13921e-07
5.44685e-08
-3.74862e-07
2.78378e-07
-4.96250e-07
1.02981e-06
1.11413e-06
3.79546e-07
9.98977e-07
-5.25855e-07
2.18407e-07
-4.65928e-07
1.19878e-07
1.55246e-07
-8.56089e-08
4.21682e-08
1.09273e-07
-1.04868e-07
2.79754e-07
1.02673e-07
4.39104e-07
-5.07675e-07
3.42497e-08
1.00729e-07
-1.95817e-07
2.56667e-07
-2.47671e-07
5.75749e-08
-4.12205e-07
-2.11564e-07
-3.18304e-09
-1.89756e-07
-5.16924e-08
-2.12939e-07
-4.84413e-08
-1.06303e-08
-1.02308e-07
-1.09688e-07
-7.95499e-08
-1.90435e-07
-2.46248e-07
-1.29886e-07
-2.26592e-07
1.69206e-07
7.68711e-09
4.47392e-08
-4.94641e-09
-9.60570e-08
-3.83531e-08
-1.28319e-08
-1.03688e-07
-7.29538e-09
2.11699e-08
-3.55834e-08
-1.05027e-09
1.03309e-07
-3.61046e-08
2.91110e-10
-1.25159e-07
-5.21250e-08
-1.91248e-08
9.74987e-08
-1.73332e-08
-2.79289e-08
-3.88906e-08
7.21098e-09
6.38614e-08
-5.10528e-08
-1.35581e-08
8.72078e-09
-6.29611e-08
-3.68069e-08
1.58440e-08
1.50528e-08
2.84237e-09
-9.91436e-10
-3.67319e-08
1.63292e-08
1.37832e-08
7.12127e-09
2.09442e-08
2.48115e-08
1.44400e-08
-8.84013e-09
4.67653e-09
6.37348e-09
1.27260e-08
-4.54903e-08
-1.91207e-08
1.16350e-08
-2.00202e-08
-3.60113e-08
9.62634e-09
5.49672e-09
-2.36452e-08
1.31800e-08
-1.13536e-08
-1.91702e-09
-2.78451e-09
-6.48345e-09
-6.60766e-09
2.00807e-09
-5.43832e-10
-5.34162e-03
-3.27420e-02
-7.79931e-02
-3.18934e-01
-2.73721e-01
6.21300e-02
4.89987e-03
-1.92871e-01
-1.17361e-03
-4.67221e-02
6.69657e-01
-4.26467e-02
-3.99265e-01
3.13998e-01
-2.30839e-01
-6.65910e-02
-5.31747e-02
1.25822e-02
-5.59943e-02
8.54005e-03
2.10863e-04
6.21085e-03
-2.28327e-04
1.52306e-02
-2.95274e-03
-1.91393e-03
4.23753e-03
-1.11850e-03
9.08298e-03
-1.32214e-02
-3.88584e-03
3.67587e-03
1.67237e-03
8.63429e-04
1.04433e-03
1.28223e-03
1.51240e-03
3.46615e-03
1.36493e-03
2.56506e-03
-3.00916e-03
1.62383e-03
-2.70426e-03
5.87962e-05
-3.18347e-03
2.06592e-03
3.56848e-03
-5.51959e-04
-1.57642e-03
-2.80063e-04
1.47732e-03
1.45701e-03
-7.46596e-04
-1.24828e-03
1.19318e-03
8.41953e-04
1.05151e-03
-2.44559e-03
6.50736e-04
9.13508e-05
-2.82586e-03
-1.06170e-03
-7.94976e-04
-6.19808e-04
3.39897e-04
2.25573e-04
2.05323e-03
-1.29791e-03
-4.09215e-04
-1.02471e-03
-2.11815e-03
1.05608e-03
5.74622e-05
-1.42015e-03
-1.17559e-03
3.86103e-04
2.71028e-04
-3.24513e-04
5.93714e-04
2.64983e-04
-3.57435e-04
-2.03228e-04
8.03383e-05
5.28818e-05
8.32201e-04
-4.93768e-05
9.85844e-05
6.20137e-04
-3.51396e-04
2.55210e-04
3.74297e-04
4.58859e-04
-8.13783e-04
-3.94279e-04
1.71965e-04
3.39936e-04
-1.16531e-03
-1.18673e-05
9.14813e-04
-6.96519e-04
1.84244e-04
-2.43112e-04
1.93917e-04
-8.80552e-04
-3.00069e-04
-4.12553e-04
2.95252e-05
7.13320e-05
-1.74271e-04
4.52331e-05
-3.41513e-04
6.18909e-04
-4.17343e-04
-9.87492e-06
6.27012e-05
1.41034e-05
-3.05522e-05
1.07843e-04
-2.25157e-04
5.82274e-05
-1.97041e-04
-3.40932e-04
-3.92530e-04
-9.88103e-05
2.23755e-05
2.67965e-04
7.68450e-05
-1.11459e-04
-4.52695e-05
3.50892e-04
1.74881e-04
-9.80498e-05
-1.63485e-04
-1.03048e-04
-1.65642e-04
-1.79284e-05
-7.61150e-05
-5.11624e-05
-2.54815e-05
1.07339e-04
-2.05236e-04
1.90725e-04
1.00118e-04
3.94359e-04
-2.26492e-05
-2.55522e-04
1.92621e-04
1.55863e-04
1.75836e-04
1.27483e-04
-2.09825e-04
-4.10497e-05
3.36184e-04
5.12634e-04
-5.12400e-05
-1.53458e-04
5.92196e-05
-1.40543e-04
-1.97692e-04
-9.12975e-05
4.24261e-06
2.13866e-04
1.02193e-04
5.16500e-04
-2.91015e-04
-1.96390e-04
-2.66968e-04
1.79437e-04
1.19654e-04
-4.47901e-04
1.06889e-04
-2.19247e-04
-5.54052e-04
5.86340e-05
8.81154e-04
-2.84790e-04
-3.33997e-04
3.30379e-04
-5.01657e-04
2.90822e-05
-1.04383e-04
-4.45176e-04
1.20641e-05
-1.20460e-04
3.04068e-04
-1.47915e-05
-8.94523e-05
9.30733e-05
5.66371e-05
1.75447e-04
-9.38572e-05
6.31071e-05
-2.22737e-04
2.89140e-04
1.98653e-04
-3.89753e-05
1.50055e-04
1.10322e-04
3.18716e-04
-3.32595e-04
4.67050e-05
1.32253e-04
1.70522e-04
4.12217e-04
1.37420e-04
-3.83970e-05
4.78138e-04
3.53700e-05
-3.27385e-06
7.64410e-05
-2.04748e-04
-5.08313e-05
-5.57519e-05
3.41077e-04
-1.23260e-04
-4.06162e-05
2.46338e-05
-1.36682e-04
1.64048e-04
-2.22739e-04
4.02654e-05
-2.71189e-04
-5.73197e-05
1.81675e-04
1.99750e-04
-1.69342e-04
4.00454e-05
1.11670e-04
4.36289e-04
1.16486e-04
-4.44537e-05
3.07131e-05
-4.13707e-05
8.16414e-05
7.73119e-05
-1.53800e-04
2.95199e-06
-9.63427e-05
4.23402e-04
-1.93566e-05
1.70446e-04
1.60441e-04
-1.99615e-05
7.89592e-05
-1.94065e-04
-6.99495e-05
1.40131e-04
-1.90821e-04
2.12475e-04
-1.10266e-04
-8.30959e-06
1.34815e-04
1.07091e-04
-2.49986e-04
-9.82869e-05
-1.28927e-04
2.62476e-05
-1.32235e-04
-1.29424e-04
7.05708e-05
7.87953e-05
-1.85654e-04
9.23610e-05
1.08557e-04
1.26431e-04
1.41643e-04
-1.30113e-04
1.12662e-04
1.74135e-04
3.04892e-05
-9.01398e-05
-3.70836e-05
-1.30305e-04
-7.31177e-05
5.54894e-05
-8.31832e-05
5.00273e-05
2.98420e-05
9.65777e-05
6.86616e-05
3.90522e-04
8.96490e-05
-2.21863e-04
-1.03469e-04
2.80532e-04
-1.26376e-04
-1.07252e-04
2.19444e-04
2.26685e-04
7.62441e-05
8.64507e-05
-4.66219e-05
2.53854e-05
-3.15460e-05
-1.29828e-04
-8.04086e-05
3.72093e-05
-1.75966e-04
-2.69609e-04
-1.61514e-04
-2.59782e-05
-3.34922e-05
2.03123e-05
-5.28320e-05
-8.27932e-05
3.42082e-06
-1.39027e-04
-7.53218e-05
-1.25169e-05
-7.84726e-05
7.49549e-05
-5.12993e-05
-1.92894e-04
-1.48499e-04
5.38674e-05
1.04741e-04
-2.99157e-04
-1.02919e-04
1.20862e-04
-1.54805e-04
1.86153e-04
1.26643e-04
-1.50477e-04
1.85835e-04
-1.06927e-04
2.54916e-04
-2.81053e-04
3.84028e-06
-6.54888e-05
2.28653e-05
-1.24734e-05
9.42804e-05
-2.98352e-05
4.00340e-05
3.75296e-05
6.10451e-05
-5.27730e-05
-2.48521e-05
6.50124e-06
-3.06631e-04
-4.44367e-05
-1.36348e-04
4.36980e-05
4.88877e-05
-2.45220e-05
1.47955e-05
3.12045e-05
5.09299e-05
-9.84459e-05
1.72419e-05
1.70006e-04
-9.39383e-05
-5.35797e-05
-1.08606e-04
-2.96939e-05
-8.88312e-05
-1.29462e-04
-2.04376e-04
-1.07239e-04
-6.34311e-05
-1.09731e-04
-3.61792e-05
-2.49044e-05
1.78298e-04
-2.44509e-05
-8.64923e-06
5.77609e-05
-4.78918e-05
-5.93073e-05
-2.22601e-04
1.96389e-05
2.45890e-05
-5.06072e-05
1.16156e-04
1.16775e-04
-8.44286e-05
-1.44202e-05
-8.78160e-05
6.87698e-05
1.67536e-05
7.65794e-05
3.00485e-05
1.07651e-05
4.41881e-05
-1.64492e-04
1.26503e-04
8.46867e-05
-6.39036e-05
-1.65638e-05
2.71889e-05
-8.91562e-05
1.50568e-05
3.66330e-05
7.93706e-05
5.68147e-05
-1.84017e-05
-2.63895e-05
-5.38329e-05
9.58059e-05
1.89944e-05
4.72812e-05
-1.17519e-04
-4.67182e-06
-5.12968e-05
4.45108e-05
1.40064e-05
4.35423e-06
-5.63386e-05
-1.00441e-04
-5.87608e-05
8.95063e-05
1.23143e-04
-6.67286e-05
4.27864e-05
8.77035e-06
-3.97608e-05
-2.50722e-06
-6.51712e-05
-2.89792e-05
-4.59511e-05
3.03892e-05
-5.93647e-05
-8.23694e-06
-8.17352e-05
8.52111e-05
1.11811e-05
7.05403e-05
2.72880e-06
-1.23646e-04
-3.08507e-05
3.58269e-06
8.72082e-05
-4.82162e-06
2.81461e-05
2.47645e-05
1.85989e-05
2.87648e-05
-7.43537e-05
-2.33464e-07
-3.71087e-05
-9.56390e-05
1.41753e-06
6.43647e-05
1.06680e-05
-2.54617e-05
-3.08040e-05
2.87795e-05
-1.37512e-05
2.79048e-06
3.93853e-05
5.40035e-05
1.04218e-05
3.18225e-05
-7.00952e-05
-4.12283e-05
-2.62092e-05
1.17281e-05
-1.69930e-05
-8.98383e-07
-1.21906e-05
-2.48257e-05
1.99788e-05
-1.50433e-05
-3.70577e-05
6.36934e-06
-7.77183e-05
-5.47947e-05
4.78253e-05
3.03811e-05
-3.75701e-06
-2.86763e-06
6.11179e-06
-4.87135e-05
4.16658e-06
-1.92160e-05
4.00926e-06
7.78476e-06
4.59754e-05
1.30020e-05
-5.40584e-05
-9.24377e-06
-3.04443e-05
1.20020e-05
-1.80848e-05
-4.24247e-05
-3.91216e-05
-3.10054e-05
-8.68173e-06
-1.12685e-05
6.71015e-07
4.24299e-05
-1.33987e-05
-1.30820e-05
4.50753e-05
2.31333e-05
-3.22481e-05
2.52146e-06
-2.96572e-05
3.88712e-05
4.74340e-06
-9.05600e-06
-2.66506e-05
1.02034e-05
-3.56424e-05
-5.19452e-06
3.05188e-05
1.60639e-05
-2.35212e-05
5.21871e-07
-4.32842e-05
-4.19988e-07
-7.91963e-07
2.98124e-05
1.65281e-05
5.56465e-05
-6.78635e-06
-4.33667e-08
-3.28180e-06
2.71398e-05
-3.68988e-05
-4.29362e-05
-1.19333e-05
-2.29850e-05
-1.60621e-05
3.05400e-05
-4.12356e-05
-3.50872e-05
-3.28820e-05
2.70242e-05
-3.77900e-05
1.67189e-05
-5.25856e-06
3.29374e-05
3.43815e-05
-5.85181e-06
-2.38810e-05
-6.45079e-05
8.61232e-06
2.51438e-05
2.83511e-05
3.04296e-05
-1.48286e-05
1.85629e-05
-7.40431e-05
4.40851e-05
2.64467e-06
4.22105e-05
9.80046e-07
2.38441e-05
-2.28104e-05
-7.75633e-06
9.56517e-06
1.28827e-06
-4.19411e-05
-3.31568e-05
-2.49275e-05
2.28714e-05
-3.61981e-05
-2.37955e-07
3.39698e-05
-6.04770e-06
-1.18154e-05
-3.32631e-05
-1.13015e-06
-9.05131e-06
-1.63039e-05
1.97459e-05
3.53015e-05
-3.61755e-05
2.00718e-06
1.34928e-05
-7.98451e-06
7.77932e-06
4.19685e-06
-1.25900e-05
-8.41288e-06
-6.40513e-06
1.19430e-05
-2.41326e-05
1.61910e-05
1.02057e-05
-1.97762e-05
-7.42480e-06
1.87118e-06
8.86406e-06
-1.24772e-05
6.75867e-06
1.02970e-05
-1.76096e-05
2.00131e-05
-1.10746e-05
-8.88854e-06
1.00694e-06
1.83750e-05
-2.42044e-06
1.67902e-05
-2.50203e-05
1.36371e-06
8.72227e-06
-1.87726e-05
-1.35785e-05
-1.56706e-05
3.66749e-07
-1.04514e-05
2.13950e-05
-2.40428e-06
-2.47815e-05
-7.87792e-06
2.52859e-06
4.61320e-06
5.37455e-07
2.21122e-06
-2.72958e-06
6.56315e-06
2.11959e-05
1.21396e-06
1.43978e-05
-2.85035e-06
-4.98366e-06
-8.70287e-06
-2.62245e-06
-6.99296e-06
-1.19058e-05
-1.31298e-05
-1.62224e-05
3.71443e-06
-1.01141e-05
-7.46252e-06
2.11636e-05
1.97542e-05
-1.99579e-06
1.10094e-05
-1.20176e-05
1.70759e-05
-7.22792e-06
-4.05825e-06
-1.57832e-05
3.19075e-06
-1.05224e-05
5.88460e-06
-5.11198e-06
1.04019e-05
9.78286e-07
2.29749e-05
1.62914e-07
-2.54093e-06
-1.29726e-05
-3.57164e-06
5.38051e-06
6.07146e-06
-5.53352e-06
2.47713e-06
-2.25409e-05
2.63868e-06
-5.94043e-06
-1.25984e-05
-2.69795e-07
3.54761e-06
6.19316e-07
2.34020e-05
-7.95009e-06
-6.57757e-06
-3.49786e-06
-7.73161e-06
1.47311e-05
6.23166e-06
-1.06885e-05
-6.75985e-06
-1.37372e-05
-9.06318e-06
-1.34729e-05
1.05613e-05
1.48115e-05
1.14374e-06
8.16354e-06
-9.61805e-06
-8.99009e-06
-1.18842e-05
1.52703e-05
-1.16013e-05
3.69130e-06
-7.28025e-06
1.65506e-05
1.53042e-05
5.78823e-06
1.27172e-05
1.47231e-06
1.09211e-05
-3.01624e-06
-8.74736e-06
3.03950e-06
1.06063e-05
-3.93611e-06
1.96808e-05
1.24653e-06
7.17656e-06
1.94342e-05
1.32259e-05
5.73868e-06
7.24811e-06
-5.10223e-06
4.32865e-06
1.16337e-05
-2.58846e-06
1.17797e-05
-1.30165e-06
9.11991e-06
-2.99334e-06
-4.38988e-06
-2.40610e-06
-4.23585e-06
-1.70728e-05
5.05828e-06
-1.59812e-06
-1.15118e-06
9.20239e-06
-1.08209e-05
2.87777e-06
-1.67301e-05
-1.50537e-05
-5.65894e-07
1.45847e-05
-1.56992e-05
1.12118e-05
3.12438e-06
-5.42703e-06
-3.63237e-06
-9.43007e-07
9.46882e-06
-1.16495e-05
1.24662e-05
-1.35103e-05
8.89836e-06
3.68684e-06
-2.29891e-06
1.86490e-05
6.56389e-06
-4.09082e-06
1.28337e-05
-4.87202e-06
-1.34966e-05
-1.21631e-06
1.18779e-06
-8.81717e-06
8.69707e-06
-7.43006e-06
-1.12444e-05
-6.71296e-06
2.04641e-06
1.91383e-06
-1.10637e-05
5.26128e-06
-8.72343e-06
1.87500e-05
-5.53382e-06
-4.73451e-06
-3.29805e-06
-1.22536e-05
8.75258e-06
-1.83921e-06
-5.50299e-07
1.40224e-05
3.92634e-06
-9.10476e-06
-4.52140e-06
-6.68728e-06
3.54847e-06
2.77195e-08
3.41668e-06
2.35858e-07
-3.90115e-06
7.83786e-06
4.17860e-06
-1.07957e-05
1.11514e-05
-5.17179e-06
-2.53365e-06
-7.74586e-06
-3.78993e-06
3.97865e-06
1.84297e-05
4.38960e-06
1.17452e-06
1.08930e-05
2.65845e-07
1.44316e-07
6.37118e-06
8.16896e-06
-7.84457e-07
7.08551e-07
-1.13577e-05
-5.13889e-06
3.39985e-06
-2.97673e-07
-5.52339e-06
6.18537e-07
-8.02279e-06
1.21944e-08
4.66914e-06
-2.55771e-07
-2.68752e-06
-5.60274e-07
3.89710e-06
5.19975e-06
5.18454e-06
3.68496e-07
-1.31962e-06
2.17076e-07
-2.44711e-06
5.19970e-06
-3.14131e-07
3.91829e-06
-3.13834e-06
4.86443e-06
2.89615e-06
1.06026e-06
4.95873e-07
4.26991e-06
4.07537e-06
9.07035e-06
5.17171e-07
3.83013e-06
1.92506e-06
5.04318e-06
5.29579e-06
-1.20221e-06
6.25982e-06
1.21658e-06
1.28761e-06
-1.33539e-06
5.51701e-06
-3.36367e-06
3.41601e-06
-8.13498e-06
-4.04370e-07
8.51534e-06
-4.93792e-06
1.02201e-06
3.62157e-06
-2.13972e-06
-2.93596e-06
1.01631e-05
-5.09689e-06
-2.68033e-06
-3.46959e-06
-1.47984e-06
2.70849e-07
-3.50937e-06
-1.63022e-06
-2.78694e-06
-1.37471e-06
2.45889e-06
1.89919e-06
-9.18339e-06
-1.19363e-06
5.86180e-06
6.56072e-07
-5.84192e-06
-3.22264e-06
-7.58195e-07
-1.09517e-05
-2.33670e-06
4.69921e-07
-1.44010e-06
5.23470e-07
6.26244e-06
5.09110e-07
-6.53372e-06
-6.33743e-06
5.66027e-06
3.50719e-06
-1.84801e-06
1.52471e-05
1.19248e-06
1.53646e-06
-8.16329e-06
-3.30672e-06
1.75836e-06
3.29877e-07
3.43794e-06
3.85112e-06
3.38227e-06
1.05737e-06
2.69042e-06
4.50016e-06
3.73753e-06
-3.79770e-06
-4.41037e-06
9.18974e-07
-5.67149e-07
-2.46027e-06
-2.15936e-06
3.25532e-06
1.87854e-06
-7.73623e-07
-4.21036e-06
-1.81142e-06
-8.13178e-07
1.83826e-06
-4.41605e-07
-8.75907e-07
-2.19591e-06
1.23265e-06
3.68193e-06
1.77250e-06
-3.45351e-08
-1.00434e-06
2.22643e-07
5.01402e-07
-3.70314e-07
4.38706e-06
9.25809e-07
5.61836e-07
-3.81793e-07
-2.07427e-06
-1.84091e-06
-1.15482e-06
-3.08826e-07
-5.03109e-07
2.03948e-06
-1.84754e-06
-1.76097e-06
-6.79831e-07
7.91433e-08
-9.89518e-08
9.80188e-07
-1.45983e-06
-1.14619e-06
-4.62871e-08
-7.20998e-07
1.66146e-08
-9.74869e-07
3.29880e-07
4.40370e-07
-6.13312e-08
-2.91311e-07
-5.87357e-07
-4.70029e-07
-4.70269e-07
-8.54668e-07
5.10113e-07
-1.05342e-06
1.03782e-06
2.56395e-07
-8.37835e-07
1.06539e-07
5.59650e-08
-1.72236e-07
1.37462e-07
8.85001e-07
5.02436e-07
-1.12479e-07
3.56765e-07
-4.38140e-08
1.48028e-07
1.56880e-07
-5.20864e-08
1.22739e-07
1.75226e-07
1.31848e-07
1.94134e-08
3.68856e-08
4.33712e-08
1.05246e-07
-1.46240e-07
-1.82173e-07
-3.65536e-08
-1.15660e-07
-3.76698e-08
2.92030e-08
1.12172e-08
3.23277e-08
5.91551e-09
2.44344e-08
-1.52461e-08
1.29927e-07
-8.78129e-08
2.50867e-08
1.38411e-08
9.97915e-08
8.25336e-08
-4.72242e-08
-7.08566e-08
3.08623e-08
1.51347e-08
7.93804e-08
-3.30188e-08
-3.66205e-08
5.96552e-08
-5.39718e-08
2.26090e-08
9.60453e-09
-2.85428e-08
-3.06116e-08
-3.68931e-08
4.29372e-08
1.42552e-08
5.07848e-09
-1.94800e-08
-7.34356e-09
-6.35713e-08
2.46966e-08
-9.70940e-09
-2.15238e-08
-1.19507e-08
1.91189e-08
-1.29677e-08
3.84246e-09
5.97961e-08
2.67854e-08
-3.34524e-09
1.31551e-08
1.29656e-08
-1.38563e-08
-1.05901e-09
1.18329e-08
7.15729e-09
1.32269e-08
1.95614e-09
6.67914e-09
9.91978e-09
-3.39990e-10
6.51756e-09
-3.16684e-09
-6.80497e-03
-2.32875e-02
-7.74584e-02
-4.77168e-01
-6.13740e-01
1.37742e-01
2.27594e-01
2.40004e-01
7.30373e-03
3.45876e-01
-1.55700e-01
1.48049e-01
1.40881e-01
-1.98708e-01
1.38412e-01
7.66151e-02
6.74977e-02
3.29868e-03
6.70593e-02
-1.50056e-02
2.95398e-03
-2.12595e-02
-3.45941e-04
-1.43060e-02
-5.14043e-03
1.31357e-04
-1.63447e-03
1.80120e-03
-1.97052e-03
1.25657e-02
5.02136e-03
-8.15014e-03
-5.70938e-04
-1.03237e-03
-7.39973e-04
3.81538e-03
1.81787e-03
-2.46594e-03
-9.29457e-03
3.28485e-03
-5.41064e-03
-1.60976e-03
-3.33398e-03
-4.68218e-04
-4.40785e-03
1.40785e-03
-3.62706e-04
1.32545e-03
-1.19504e-03
-1.28438e-03
1.36336e-05
-9.31884e-04
-2.06477e-04
-9.11913e-04
1.11402e-03
3.11244e-04
4.18853e-04
-1.37921e-03
-8.85947e-04
8.56614e-04
-2.09218e-03
-5.88136e-04
-7.63087e-04
-1.02374e-03
2.20805e-04
-1.41584e-04
7.26447e-04
4.36613e-04
-6.94110e-05
-1.57879e-03
-1.13688e-03
2.42903e-04
-5.68415e-04
-4.08384e-04
-5.07140e-04
1.28696e-03
-7.98571e-04
-4.18080e-05
-4.87302e-04
-7.54978e-05
1.57764e-05
-6.49602e-04
2.07724e-04
3.36845e-04
4.92442e-04
2.84776e-04
2.59782e-04
-3.41939e-04
-8.79075e-04
-6.16774e-05
5.27039e-04
-2.78097e-04
7.36485e-04
1.16710e-04
3.84577e-04
2.39331e-04
7.74615e-04
8.00592e-04
5.02618e-04
-4.74302e-04
4.92142e-04
-1.49180e-04
-1.01824e-04
2.30474e-04
4.45757e-04
8.15381e-05
-5.02234e-04
4.59319e-04
3.85156e-05
1.43593e-04
2.32064e-05
-5.53425e-04
3.70422e-05
5.16762e-04
-3.29368e-04
-5.60190e-04
3.89520e-04
-2.44443e-04
-4.50141e-05
4.32109e-05
4.81380e-05
1.30443e-04
-1.16360e-04
-1.68520e-04
-5.33638e-04
-1.02150e-05
1.54031e-04
-3.15380e-04
-1.57529e-04
1.50647e-04
-3.27507e-04
4.77540e-05
-4.41359e-04
2.65876e-04
1.63435e-04
-1.82656e-04
-1.88441e-04
1.06272e-04
5.21163e-05
3.07615e-05
2.32846e-05
5.46041e-04
-4.84490e-04
1.64840e-04
-9.65736e-05
1.22259e-04
4.84946e-04
-5.76528e-04
1.81716e-07
1.32161e-05
1.25170e-04
-7.01623e-05
-2.06508e-04
-2.08953e-04
4.78933e-05
-1.55623e-04
5.24576e-05
-8.02899e-05
2.10631e-04
4.14501e-04
-1.40625e-04
-2.90164e-04
1.64341e-04
-5.63503e-04
5.80782e-05
8.82256e-05
9.11539e-05
-1.33449e-04
-7.46069e-05
1.18797e-04
-1.80021e-04
5.67574e-05
2.12124e-04
1.94850e-05
-4.32343e-04
-4.78196e-05
-1.72452e-05
2.02408e-04
1.31201e-04
-2.00019e-05
-9.98013e-05
8.16240e-05
3.99863e-05
-1.93973e-04
1.48021e-04
-2.42207e-04
1.21590e-05
2.47760e-04
-7.68762e-05
1.28915e-04
-7.97931e-05
-3.57423e-05
1.30067e-04
-3.37825e-07
-1.02913e-04
-1.27644e-04
-4.72132e-05
6.03571e-05
-1.29297e-04
1.38577e-04
1.41859e-04
5.82372e-05
1.83556e-04
-1.03769e-04
-1.93815e-04
-1.50098e-04
-9.96334e-06
-1.04814e-04
4.47620e-05
-3.29762e-04
-8.38374e-05
1.46696e-04
5.66847e-05
1.23392e-04
7.16651e-05
-2.99937e-05
3.25216e-05
-3.27451e-04
-6.05592e-05
-2.97121e-05
-2.40143e-05
3.46944e-05
1.73146e-04
-4.97560e-05
-4.00110e-07
1.84169e-04
-1.93246e-04
-7.14732e-05
-1.35230e-04
-3.80396e-07
1.00030e-04
-1.85543e-04
2.94660e-05
2.74682e-04
-2.02266e-04
-1.43862e-04
-3.22341e-05
1.15370e-04
1.07289e-04
9.96120e-07
-2.08530e-04
-7.47174e-05
2.23217e-06
-1.20688e-04
4.04179e-05
-8.20011e-05
1.18241e-05
1.11113e-04
-1.35021e-04
1.52890e-04
2.95100e-05
1.17630e-05
-1.51911e-04
3.52999e-05
4.51364e-05
3.04593e-05
5.07073e-05
1.50784e-05
6.34328e-05
-6.04217e-05
7.16799e-05
1.36401e-04
1.05729e-05
-6.00501e-05
1.28642e-04
8.58537e-05
1.51575e-04
-4.60982e-05
5.46728e-05
4.08282e-05
-5.12195e-05
-6.94097e-05
1.48020e-04
-5.79904e-05
4.13869e-05
8.02283e-05
-1.60660e-04
4.32773e-05
1.38197e-04
-5.46859e-05
-3.03848e-05
5.95580e-05
2.62070e-04
7.84953e-05
-9.11004e-05
-5.57000e-05
7.55890e-05
-1.61159e-04
4.02628e-05
-8.71488e-05
-3.90457e-06
1.39511e-04
-1.11872e-04
1.40774e-04
2.43284e-05
9.69781e-05
-5.21358e-05
3.13597e-05
1.06846e-04
1.13248e-04
-1.53159e-04
-9.68041e-07
3.35767e-05
-1.70871e-04
-1.36328e-04
7.60121e-05
-6.00604e-05
-2.97308e-05
-1.75241e-04
4.83797e-05
-3.78593e-05
-2.25968e-05
4.82217e-05
5.93400e-05
-1.88881e-04
-5.61133e-05
2.38276e-04
-7.26567e-06
-2.36636e-05
1.51157e-04
-5.94875e-05
-4.91113e-06
-6.73934e-05
1.03635e-04
-9.43172e-05
-1.16791e-04
2.28225e-04
-3.92786e-05
9.00358e-06
-2.00325e-04
-9.69020e-05
5.05601e-05
-1.17269e-04
1.18612e-05
5.36602e-05
1.46260e-05
-3.47446e-06
5.01889e-05
7.55222e-05
1.68512e-04
6.65785e-05
7.18908e-05
-1.64056e-04
-3.16034e-05
5.32898e-05
-4.84137e-05
-1.26297e-05
-3.07405e-05
2.77510e-05
-7.68760e-05
5.68649e-05
3.09495e-05
1.76319e-04
8.76827e-05
-1.57870e-04
7.79037e-05
3.48537e-05
8.93729e-05
1.51149e-04
8.89455e-05
-1.16507e-05
7.45252e-05
-8.68319e-05
-2.29978e-05
2.43839e-05
7.30648e-05
-7.97511e-05
6.43432e-07
4.06615e-06
-7.86072e-06
3.17132e-05
-6.78058e-06
5.54008e-05
-1.27882e-04
-1.93164e-04
-5.24548e-05
4.75884e-05
1.52053e-05
-1.56957e-04
-4.34262e-05
3.50596e-05
-6.71194e-05
-2.10726e-07
2.48468e-05
1.72133e-05
6.88876e-06
-1.04866e-04
-3.67230e-05
-1.06818e-04
2.60222e-05
-2.77534e-05
4.21954e-05
-6.67825e-05
-3.74065e-05
-5.83028e-05
1.54498e-05
4.49409e-05
2.07483e-05
1.41398e-05
-1.51273e-05
-6.48921e-05
-2.68306e-05
4.55530e-05
4.24018e-05
-1.07824e-04
-1.79782e-05
2.17323e-05
3.71358e-05
6.06192e-05
8.07358e-05
-2.26225e-05
-6.86616e-05
8.26541e-05
9.16909e-07
-1.46905e-05
-7.97533e-06
-3.81041e-05
-2.39293e-05
3.79405e-06
4.64458e-05
1.29235e-05
2.01774e-05
-3.08434e-05
-6.31475e-06
-4.96029e-05
2.68938e-05
-1.95591e-05
1.63467e-05
2.49214e-05
5.01991e-05
-3.38173e-05
-6.40078e-05
-9.64275e-06
-1.48585e-06
2.94958e-05
-6.69331e-06
-5.41384e-05
1.37630e-05
-1.21198e-05
3.82218e-06
3.13238e-06
-5.51098e-06
-2.23037e-05
1.44493e-05
3.23239e-05
8.86424e-06
-4.42839e-05
-3.30007e-05
1.99378e-05
-9.64714e-06
5.98442e-06
-3.04488e-06
2.72091e-05
4.89100e-05
-5.20934e-06
-1.21019e-05
1.80717e-05
5.52667e-05
1.21546e-05
-1.23576e-06
-1.12275e-05
4.25334e-06
2.87925e-05
-3.26019e-06
-3.54650e-05
4.20091e-05
4.54313e-05
3.40129e-06
-7.54361e-05
-2.30293e-05
4.28251e-05
-5.73150e-05
6.83034e-05
-3.03037e-05
1.78033e-05
1.30557e-05
-2.43896e-05
-5.78330e-06
-1.95813e-05
9.07292e-07
1.72069e-05
-1.06534e-05
-1.31815e-05
1.48253e-05
-3.27247e-05
2.15978e-05
-1.43700e-05
-2.49908e-05
-3.43850e-05
2.68678e-05
-1.12866e-05
2.17966e-05
2.22878e-05
-3.50776e-05
1.83106e-06
2.12650e-05
1.26563e-05
4.54346e-05
-2.31788e-05
4.66255e-06
-9.19468e-06
1.76898e-05
-2.06240e-05
-9.43965e-06
3.86910e-05
-7.40550e-06
-3.04317e-05
-2.47192e-05
1.06354e-05
-4.18236e-06
1.54072e-05
-6.43180e-06
-1.97696e-05
3.17897e-05
-4.02896e-05
3.15677e-05
-2.13058e-05
-1.12160e-06
2.33373e-05
2.07320e-05
1.16210e-05
-1.35509e-05
2.42892e-05
9.73612e-06
7.34838e-07
-1.50042e-06
9.13643e-06
2.69023e-05
-3.39979e-05
6.65456e-06
8.72442e-06
-2.14216e-05
-3.20942e-05
7.13258e-06
1.60618e-05
1.22761e-05
6.78042e-06
-1.93612e-05
7.56319e-06
-1.69567e-05
2.57460e-08
-4.43773e-06
-4.64950e-05
-1.85892e-05
-1.21047e-05
-8.60241e-06
-4.94904e-06
1.75801e-05
-2.46535e-07
2.09451e-05
8.15391e-06
-1.54954e-05
-2.59547e-05
5.39481e-07
1.37836e-05
2.49253e-06
5.67018e-06
8.00283e-06
-5.19367e-06
-1.42224e-05
1.16799e-05
3.11511e-06
-3.33363e-06
1.56274e-05
-5.14384e-06
2.60215e-06
4.20803e-06
-1.05445e-05
2.35784e-05
-1.60350e-05
-2.76815e-05
-2.11247e-07
1.76217e-07
2.48461e-06
3.40001e-05
-1.51247e-05
-1.40139e-05
-1.80976e-06
-4.06639e-06
1.83105e-05
-6.05251e-06
3.87409e-06
8.81106e-07
1.08181e-05
-1.18624e-05
1.45859e-05
-1.71476e-05
-1.55720e-05
-7.71602e-07
-1.57688e-05
-2.81402e-06
2.04624e-05
-6.26461e-06
6.04775e-06
1.44130e-05
-9.86712e-06
1.07674e-05
1.12537e-05
-1.39513e-05
1.82376e-05
1.41797e-05
1.50326e-06
5.63228e-06
-6.02254e-07
5.47469e-06
1.46959e-05
3.38208e-06
9.68986e-07
8.53101e-06
-9.99551e-07
2.22160e-06
1.73415e-06
2.17224e-05
-6.45066e-06
-5.20775e-07
1.01202e-05
-1.28864e-05
-1.46620e-06
-4.31247e-06
-3.07047e-06
9.49525e-06
-6.97781e-06
1.40458e-05
-6.32149e-06
2.80790e-06
-2.77469e-06
2.45758e-05
4.31322e-06
-1.10487e-05
-9.99223e-07
2.74694e-06
1.47642e-06
7.33092e-06
-4.64501e-06
-7.41760e-06
8.77060e-06
5.43759e-06
-7.29196e-06
1.68699e-05
1.95100e-06
-3.72240e-06
3.07640e-06
-1.05880e-05
-9.14093e-06
-7.29616e-06
-4.41374e-06
2.21288e-06
2.50543e-06
-7.91786e-06
5.80494e-06
2.78483e-06
1.38812e-06
1.24274e-05
-4.30088e-06
6.11300e-07
7.26890e-06
1.27402e-06
-3.11917e-06
-5.84720e-06
2.08610e-06
1.00355e-05
-1.08992e-08
1.49082e-05
6.99691e-06
-1.06232e-05
-7.10577e-06
8.04103e-06
1.02163e-06
-1.09372e-05
-1.92174e-07
-4.03693e-07
-1.16805e-06
-1.00178e-05
4.76282e-06
-7.86574e-06
6.48453e-07
-6.72326e-06
-4.01286e-06
-6.27637e-06
9.63516e-06
-2.41199e-06
6.92352e-06
-7.14123e-06
4.31773e-06
-3.85197e-06
-4.31118e-06
-1.09602e-05
-5.68413e-06
9.99614e-06
5.09388e-06
-1.31268e-06
5.54965e-06
5.84896e-06
1.01189e-05
-6.30924e-06
-1.07795e-05
-8.95241e-06
-6.54477e-07
5.23660e-06
-1.20701e-06
5.19706e-06
2.64199e-07
-5.93970e-06
3.73181e-06
-9.48928e-06
-7.12170e-07
5.44667e-06
2.88286e-06
-3.98603e-06
-1.98462e-06
2.09959e-06
-1.24630e-06
-5.40417e-06
-6.60989e-06
1.55770e-06
-6.17731e-06
7.33479e-06
-2.16785e-06
1.86753e-06
-4.59834e-06
-7.84645e-06
-5.00867e-06
6.90927e-06
-1.99506e-06
1.21056e-06
4.28153e-06
1.68191e-06
9.18003e-06
9.33608e-07
4.56941e-06
1.68114e-06
1.23789e-05
-3.87963e-06
6.75854e-06
4.57032e-07
-1.01023e-06
5.28687e-06
3.79528e-06
-5.68720e-06
-8.27134e-06
4.55428e-06
5.62483e-06
-4.24529e-07
1.83843e-06
4.64156e-06
5.36223e-06
4.23892e-06
7.60870e-06
-4.36663e-06
3.99307e-06
4.26712e-06
-1.04300e-06
3.57792e-06
-9.17538e-07
2.43477e-06
-1.60570e-06
-3.56258e-06
2.34115e-06
7.85544e-06
5.22739e-06
-1.82064e-06
-4.10124e-06
6.27472e-06
-6.48709e-06
-2.39127e-06
-2.21616e-06
-1.73085e-06
-1.75492e-07
-6.50356e-06
-6.30796e-06
9.33803e-06
1.20599e-06
-8.86300e-06
1.06820e-05
-3.76733e-06
-2.73982e-06
1.75508e-06
4.12671e-07
3.31324e-06
2.26369e-06
-5.00436e-06
6.14413e-07
3.81825e-06
-2.79704e-06
-5.56870e-06
-3.07733e-06
3.22622e-06
5.28677e-06
1.82559e-06
3.42543e-06
8.19461e-06
6.60742e-06
-3.27582e-06
2.93479e-06
-7.46989e-07
-9.67812e-07
1.21404e-06
-1.32110e-06
1.26129e-06
-1.99895e-06
2.26862e-06
-2.69234e-06
-5.67819e-06
-5.07353e-06
-3.34981e-06
-1.32969e-07
4.74428e-07
2.15607e-06
-1.07101e-06
1.62411e-06
-1.90894e-06
4.81982e-06
4.85585e-06
-1.66502e-06
3.22408e-06
3.81892e-07
-3.15577e-06
-1.84885e-06
1.55349e-06
-3.32780e-06
-9.32113e-07
2.08295e-06
-1.89065e-06
5.01351e-06
1.52806e-06
-1.82196e-06
